{"learner":{"attributes":{"scikit_learn":"{\"_estimator_type\": \"classifier\"}"},"feature_names":[],"feature_types":[],"gradient_booster":{"model":{"gbtree_model_param":{"num_parallel_tree":"1","num_trees":"500"},"iteration_indptr":[0,1,2,3,4,5,6,7,8,9,10,11,12,13,14,15,16,17,18,19,20,21,22,23,24,25,26,27,28,29,30,31,32,33,34,35,36,37,38,39,40,41,42,43,44,45,46,47,48,49,50,51,52,53,54,55,56,57,58,59,60,61,62,63,64,65,66,67,68,69,70,71,72,73,74,75,76,77,78,79,80,81,82,83,84,85,86,87,88,89,90,91,92,93,94,95,96,97,98,99,100,101,102,103,104,105,106,107,108,109,110,111,112,113,114,115,116,117,118,119,120,121,122,123,124,125,126,127,128,129,130,131,132,133,134,135,136,137,138,139,140,141,142,143,144,145,146,147,148,149,150,151,152,153,154,155,156,157,158,159,160,161,162,163,164,165,166,167,168,169,170,171,172,173,174,175,176,177,178,179,180,181,182,183,184,185,186,187,188,189,190,191,192,193,194,195,196,197,198,199,200,201,202,203,204,205,206,207,208,209,210,211,212,213,214,215,216,217,218,219,220,221,222,223,224,225,226,227,228,229,230,231,232,233,234,235,236,237,238,239,240,241,242,243,244,245,246,247,248,249,250,251,252,253,254,255,256,257,258,259,260,261,262,263,264,265,266,267,268,269,270,271,272,273,274,275,276,277,278,279,280,281,282,283,284,285,286,287,288,289,290,291,292,293,294,295,296,297,298,299,300,301,302,303,304,305,306,307,308,309,310,311,312,313,314,315,316,317,318,319,320,321,322,323,324,325,326,327,328,329,330,331,332,333,334,335,336,337,338,339,340,341,342,343,344,345,346,347,348,349,350,351,352,353,354,355,356,357,358,359,360,361,362,363,364,365,366,367,368,369,370,371,372,373,374,375,376,377,378,379,380,381,382,383,384,385,386,387,388,389,390,391,392,393,394,395,396,397,398,399,400,401,402,403,404,405,406,407,408,409,410,411,412,413,414,415,416,417,418,419,420,421,422,423,424,425,426,427,428,429,430,431,432,433,434,435,436,437,438,439,440,441,442,443,444,445,446,447,448,449,450,451,452,453,454,455,456,457,458,459,460,461,462,463,464,465,466,467,468,469,470,471,472,473,474,475,476,477,478,479,480,481,482,483,484,485,486,487,488,489,490,491,492,493,494,495,496,497,498,499,500],"tree_info":[0,0,0,0,0,0,0,0,0,0,0,0,0,0,0,0,0,0,0,0,0,0,0,0,0,0,0,0,0,0,0,0,0,0,0,0,0,0,0,0,0,0,0,0,0,0,0,0,0,0,0,0,0,0,0,0,0,0,0,0,0,0,0,0,0,0,0,0,0,0,0,0,0,0,0,0,0,0,0,0,0,0,0,0,0,0,0,0,0,0,0,0,0,0,0,0,0,0,0,0,0,0,0,0,0,0,0,0,0,0,0,0,0,0,0,0,0,0,0,0,0,0,0,0,0,0,0,0,0,0,0,0,0,0,0,0,0,0,0,0,0,0,0,0,0,0,0,0,0,0,0,0,0,0,0,0,0,0,0,0,0,0,0,0,0,0,0,0,0,0,0,0,0,0,0,0,0,0,0,0,0,0,0,0,0,0,0,0,0,0,0,0,0,0,0,0,0,0,0,0,0,0,0,0,0,0,0,0,0,0,0,0,0,0,0,0,0,0,0,0,0,0,0,0,0,0,0,0,0,0,0,0,0,0,0,0,0,0,0,0,0,0,0,0,0,0,0,0,0,0,0,0,0,0,0,0,0,0,0,0,0,0,0,0,0,0,0,0,0,0,0,0,0,0,0,0,0,0,0,0,0,0,0,0,0,0,0,0,0,0,0,0,0,0,0,0,0,0,0,0,0,0,0,0,0,0,0,0,0,0,0,0,0,0,0,0,0,0,0,0,0,0,0,0,0,0,0,0,0,0,0,0,0,0,0,0,0,0,0,0,0,0,0,0,0,0,0,0,0,0,0,0,0,0,0,0,0,0,0,0,0,0,0,0,0,0,0,0,0,0,0,0,0,0,0,0,0,0,0,0,0,0,0,0,0,0,0,0,0,0,0,0,0,0,0,0,0,0,0,0,0,0,0,0,0,0,0,0,0,0,0,0,0,0,0,0,0,0,0,0,0,0,0,0,0,0,0,0,0,0,0,0,0,0,0,0,0,0,0,0,0,0,0,0,0,0,0,0,0,0,0,0,0,0,0,0,0,0,0,0,0,0,0,0,0,0,0,0,0,0,0,0,0,0,0,0,0,0,0,0,0,0,0,0,0,0,0,0,0,0,0,0,0,0,0,0,0,0,0,0],"trees":[{"base_weights":[1.7941818E-3,-1.9772414E0,1.9451451E0,-1.9933937E0,-4E-2,7.4157304E-1,1.9628834E0,-9.996494E-2,-1.2475247E0,4E-1,-9.411765E-1,9.068323E-1,-6.666667E-1,1.6103896E0,9.8837316E-2,-0E0,-6.4948454E-2,7.333334E-2,5.0847456E-3,-5.714286E-2,-0E0,4.74359E-2,-1.1111111E-2,2.0000001E-2,-6.0000002E-2,8.230089E-2,-0E0],"categories":[],"categories_nodes":[],"categories_segments":[],"categories_sizes":[],"default_left":[0,0,0,0,1,1,0,0,0,0,0,1,0,1,0,0,0,0,0,0,0,0,0,0,0,0,0],"id":0,"left_children":[1,3,5,7,9,11,13,-1,15,17,19,21,23,25,-1,-1,-1,-1,-1,-1,-1,-1,-1,-1,-1,-1,-1],"loss_changes":[2.251137E4,9.0663086E1,6.159375E1,1.0172852E1,1.0289412E1,1.0960802E1,1.1035156E1,0E0,1.6204948E0,5.4192085E0,1.6134458E0,2.114296E0,3.466667E0,6.626831E0,0E0,0E0,0E0,0E0,0E0,0E0,0E0,0E0,0E0,0E0,0E0,0E0,0E0],"parents":[2147483647,0,0,1,1,2,2,3,3,4,4,5,5,6,6,8,8,9,9,10,10,11,11,12,12,13,13],"right_children":[2,4,6,8,10,12,14,-1,16,18,20,22,24,26,-1,-1,-1,-1,-1,-1,-1,-1,-1,-1,-1,-1,-1],"split_conditions":[7.658E0,7.532E0,7.792E0,7.364E0,9.128091E-2,1.0337959E-1,7.974E0,-9.996494E-2,8.5357115E-2,1.22599594E-1,4.62155E-1,2.7938998E-1,1.2970729E-1,1.1902064E-1,9.8837316E-2,-0E0,-6.4948454E-2,7.333334E-2,5.0847456E-3,-5.714286E-2,-0E0,4.74359E-2,-1.1111111E-2,2.0000001E-2,-6.0000002E-2,8.230089E-2,-0E0],"split_indices":[6,6,6,6,5,5,6,0,1,1,0,4,1,5,0,0,0,0,0,0,0,0,0,0,0,0,0],"split_type":[0,0,0,0,0,0,0,0,0,0,0,0,0,0,0,0,0,0,0,0,0,0,0,0,0,0,0],"sum_hessian":[5.85125E3,2.899E3,2.95225E3,2.875E3,2.4E1,4.35E1,2.90875E3,2.85075E3,2.425E1,1.65E1,7.5E0,3.925E1,4.25E0,1.145E2,2.79425E3,1E0,2.325E1,2.75E0,1.375E1,6E0,1.5E0,3.8E1,1.25E0,1.5E0,2.75E0,1.12E2,2.5E0],"tree_param":{"num_deleted":"0","num_feature":"7","num_nodes":"27","size_leaf_vector":"1"}},{"base_weights":[-9.660251E-3,-3.213742E-1,1.0679888E0,-1.5899829E0,-1.14967816E-1,8.023329E-1,1.391868E0,-1.7530394E0,-1.0589824E0,-8.787849E-2,-8.984427E-1,9.588962E-1,3.5010698E-1,1.4233596E0,1.0566024E0,-9.365256E-2,-7.7751845E-2,-3.0350158E-2,-7.666329E-2,-6.620069E-3,1.8218832E-2,1.6235827E-2,-4.810405E-2,3.0176083E-2,5.5416863E-2,2.8612688E-2,1.26819955E-2,6.523379E-2,7.540008E-2,1.712043E-2,5.9214056E-2],"categories":[],"categories_nodes":[],"categories_segments":[],"categories_sizes":[],"default_left":[1,0,0,0,1,0,0,0,0,1,0,0,0,0,0,0,0,0,0,0,0,0,0,0,0,0,0,0,0,0,0],"id":1,"left_children":[1,3,5,7,9,11,13,15,17,19,21,23,25,27,29,-1,-1,-1,-1,-1,-1,-1,-1,-1,-1,-1,-1,-1,-1,-1,-1],"loss_changes":[1.97763E3,1.1955154E3,1.1252954E2,5.3463013E1,8.329772E1,5.120877E1,4.765869E0,8.666626E0,3.1787613E1,7.6529045E1,1.0523552E1,2.8020416E1,3.900776E0,3.456787E0,4.59803E0,0E0,0E0,0E0,0E0,0E0,0E0,0E0,0E0,0E0,0E0,0E0,0E0,0E0,0E0,0E0,0E0],"parents":[2147483647,0,0,1,1,2,2,3,3,4,4,5,5,6,6,7,7,8,8,9,9,10,10,11,11,12,12,13,13,14,14],"right_children":[2,4,6,8,10,12,14,16,18,20,22,24,26,28,30,-1,-1,-1,-1,-1,-1,-1,-1,-1,-1,-1,-1,-1,-1,-1,-1],"split_conditions":[5.0906503E-1,4.1397494E-1,5.9566504E-1,3.8055998E-1,1.1645134E-1,1.0300082E-1,1.0082466E-1,3.2951E-1,1.1543411E-1,2.4303E-1,1.2328401E-1,2.3333499E-1,1.0556574E-1,6.32275E-1,2.3232499E-1,-9.365256E-2,-7.7751845E-2,-3.0350158E-2,-7.666329E-2,-6.620069E-3,1.8218832E-2,1.6235827E-2,-4.810405E-2,3.0176083E-2,5.5416863E-2,2.8612688E-2,1.26819955E-2,6.523379E-2,7.540008E-2,1.712043E-2,5.9214056E-2],"split_indices":[2,2,2,2,5,5,5,2,5,4,1,4,5,2,4,0,0,0,0,0,0,0,0,0,0,0,0,0,0,0,0],"split_type":[0,0,0,0,0,0,0,0,0,0,0,0,0,0,0,0,0,0,0,0,0,0,0,0,0,0,0,0,0,0,0],"sum_hessian":[5.8852144E3,4.5653667E3,1.3198474E3,6.379171E2,3.9274497E3,7.270092E2,5.9283826E2,4.86289E2,1.516281E2,3.7972678E3,1.301817E2,5.3921075E2,1.8779846E2,5.389674E2,5.3870888E1,2.9750665E2,1.8878233E2,7.880701E1,7.28211E1,3.4575881E3,3.3967984E2,6.23522E0,1.2394649E2,1.611146E2,3.7809613E2,5.5366653E1,1.3243181E2,2.3119807E2,3.0776932E2,8.72847E0,4.5142418E1],"tree_param":{"num_deleted":"0","num_feature":"7","num_nodes":"31","size_leaf_vector":"1"}},{"base_weights":[4.0299565E-4,-1.8679149E0,1.8397526E0,-1.8846855E0,-6.6489756E-2,7.324231E-1,1.8566943E0,-9.4472215E-2,-6.2408216E-2,7.212313E-2,-3.2485896E-1,8.742443E-1,-4.1203418E-1,1.5399429E0,9.34486E-2,-4.3940086E-2,-1.6084919E-4,-3.2818508E-3,4.618676E-2,2.6628751E-2,-4.7935404E-2,7.905341E-2,-4.4272556E-3],"categories":[],"categories_nodes":[],"categories_segments":[],"categories_sizes":[],"default_left":[0,0,0,0,0,1,0,0,0,0,0,0,0,1,0,0,0,0,0,0,0,0,0],"id":2,"left_children":[1,3,5,7,9,11,13,-1,-1,-1,15,17,19,21,-1,-1,-1,-1,-1,-1,-1,-1,-1],"loss_changes":[2.0046373E4,8.7302734E1,5.3786133E1,6.3251953E0,1.1279274E1,7.8178005E0,8.378906E0,0E0,0E0,0E0,4.3608613E0,1.9771385E0,3.4775982E0,7.7539062E0,0E0,0E0,0E0,0E0,0E0,0E0,0E0,0E0,0E0],"parents":[2147483647,0,0,1,1,2,2,3,3,4,4,5,5,6,6,10,10,11,11,12,12,13,13],"right_children":[2,4,6,8,10,12,14,-1,-1,-1,16,18,20,22,-1,-1,-1,-1,-1,-1,-1,-1,-1],"split_conditions":[7.658E0,7.532E0,7.792E0,7.364E0,8.5799746E-2,1.0337959E-1,7.974E0,-9.4472215E-2,-6.2408216E-2,7.212313E-2,4.62155E-1,1.1488496E-1,1.3413888E-1,1.1902064E-1,9.34486E-2,-4.3940086E-2,-1.6084919E-4,-3.2818508E-3,4.618676E-2,2.6628751E-2,-4.7935404E-2,7.905341E-2,-4.4272556E-3],"split_indices":[6,6,6,6,5,5,6,0,0,0,0,3,1,5,0,0,0,0,0,0,0,0,0],"split_type":[0,0,0,0,0,0,0,0,0,0,0,0,0,0,0,0,0,0,0,0,0,0,0],"sum_hessian":[5.831386E3,2.8929048E3,2.9384814E3,2.8661758E3,2.6729149E1,4.494705E1,2.8935344E3,2.8429526E3,2.3223167E1,3.2376084E0,2.3491539E1,4.0201397E1,4.7456493E0,1.1268816E2,2.7808462E3,7.9931793E0,1.5498361E1,1.9946576E0,3.820674E1,1.7491121E0,2.9965372E0,1.0994088E2,2.7472873E0],"tree_param":{"num_deleted":"0","num_feature":"7","num_nodes":"23","size_leaf_vector":"1"}},{"base_weights":[2.391641E-4,-1.8046794E0,1.7488525E0,-9.046265E-2,-6.0311545E-2,5.473445E-1,1.7759967E0,7.908191E-1,-1.9740315E-1,1.4461116E0,8.942728E-2,3.0128468E-2,7.072405E-2,-3.9880544E-2,7.5863055E-3,7.572027E-2,3.316036E-2],"categories":[],"categories_nodes":[],"categories_segments":[],"categories_sizes":[],"default_left":[0,0,0,0,0,1,0,1,0,1,0,0,0,0,0,0,0],"id":3,"left_children":[1,3,5,-1,-1,7,9,11,13,15,-1,-1,-1,-1,-1,-1,-1],"loss_changes":[1.8316875E4,5.6328125E0,9.516797E1,0E0,0E0,1.2227104E1,9.344727E0,5.0611744E0,3.7256114E0,4.9221954E0,0E0,0E0,0E0,0E0,0E0,0E0,0E0],"parents":[2147483647,0,0,1,1,2,2,5,5,6,6,7,7,8,8,9,9],"right_children":[2,4,6,-1,-1,8,10,12,14,16,-1,-1,-1,-1,-1,-1,-1],"split_conditions":[7.532E0,7.364E0,7.792E0,-9.046265E-2,-6.0311545E-2,9.128091E-2,7.974E0,2.23115E-1,9.760796E-2,2.1633221E-1,8.942728E-2,3.0128468E-2,7.072405E-2,-3.9880544E-2,7.5863055E-3,7.572027E-2,3.316036E-2],"split_indices":[6,6,6,0,0,5,6,4,5,3,0,0,0,0,0,0,0],"split_type":[0,0,0,0,0,0,0,0,0,0,0,0,0,0,0,0,0],"sum_hessian":[5.801634E3,2.854838E3,2.9467957E3,2.831178E3,2.3660112E1,6.5570244E1,2.8812253E3,4.9368664E1,1.6201582E1,1.0984423E2,2.771381E3,3.9432346E1,9.936315E0,5.485896E0,1.0715685E1,1.0017177E2,9.672458E0],"tree_param":{"num_deleted":"0","num_feature":"7","num_nodes":"17","size_leaf_vector":"1"}},{"base_weights":[-3.6675876E-3,-1.7346975E0,1.6792319E0,-8.696135E-2,-1.115552E0,4.7065303E-1,1.7078934E0,-7.962269E-2,-8.2796264E-1,-1.0230632E0,5.907471E-1,1.3743664E0,8.604783E-2,1.5442624E-2,-4.699258E-2,-6.0079256E-3,-6.292856E-2,6.7951656E-3,4.2645704E-2,7.261199E-2,3.0664353E-2],"categories":[],"categories_nodes":[],"categories_segments":[],"categories_sizes":[],"default_left":[0,0,0,0,0,0,0,0,0,0,0,1,0,0,0,0,0,0,0,0,0],"id":4,"left_children":[1,3,5,-1,7,9,11,-1,13,15,17,19,-1,-1,-1,-1,-1,-1,-1,-1,-1],"loss_changes":[1.6701268E4,5.9853516E0,9.98916E1,0E0,1.8790436E0,1.2932134E1,1.0005859E1,0E0,2.4051237E0,1.0140648E0,7.544592E0,5.7460327E0,0E0,0E0,0E0,0E0,0E0,0E0,0E0,0E0,0E0],"parents":[2147483647,0,0,1,1,2,2,4,4,5,5,6,6,8,8,9,9,10,10,11,11],"right_children":[2,4,6,-1,8,10,12,-1,14,16,18,20,-1,-1,-1,-1,-1,-1,-1,-1,-1],"split_conditions":[7.532E0,7.364E0,7.792E0,-8.696135E-2,5.5647504E-1,4.7225493E-1,7.974E0,-7.962269E-2,5.8091503E-1,3.7830502E-1,7.658E0,2.1212643E-1,8.604783E-2,1.5442624E-2,-4.699258E-2,-6.0079256E-3,-6.292856E-2,6.7951656E-3,4.2645704E-2,7.261199E-2,3.0664353E-2],"split_indices":[6,6,6,0,2,2,6,0,2,2,6,3,0,0,0,0,0,0,0,0,0],"split_type":[0,0,0,0,0,0,0,0,0,0,0,0,0,0,0,0,0,0,0,0,0],"sum_hessian":[5.7310625E3,2.8251172E3,2.9059456E3,2.8028035E3,2.2313808E1,6.77218E1,2.8382236E3,6.6872573E0,1.5626551E1,4.4800925E0,6.324171E1,1.1097774E2,2.7272458E3,1.2424681E0,1.4384082E1,1.2392375E0,3.2408552E0,2.36788E1,3.9562912E1,9.985271E1,1.1125029E1],"tree_param":{"num_deleted":"0","num_feature":"7","num_nodes":"21","size_leaf_vector":"1"}},{"base_weights":[6.6615954E-5,-1.6604241E0,1.6331546E0,-1.6741437E0,-1.6161273E-1,6.780308E-1,1.6471053E0,-8.3890654E-2,-1.1798433E0,6.982874E-2,-4.7253093E-1,8.386519E-1,-6.387696E-1,1.4441258E0,8.309858E-2,-6.260122E-2,-1.6423581E-2,-6.391497E-2,-8.150405E-3,3.9704293E-3,4.770506E-2,-6.0082108E-2,-7.595494E-4,7.2808616E-2,1.9782973E-2],"categories":[],"categories_nodes":[],"categories_segments":[],"categories_sizes":[],"default_left":[0,0,0,0,0,1,0,0,1,0,0,0,0,1,0,0,0,0,0,0,0,0,0,0,0],"id":5,"left_children":[1,3,5,7,9,11,13,-1,15,-1,17,19,21,23,-1,-1,-1,-1,-1,-1,-1,-1,-1,-1,-1],"loss_changes":[1.5405656E4,5.7654785E1,3.704785E1,3.0830078E0,1.3574962E1,9.616188E0,6.116699E0,0E0,1.059761E0,0E0,5.520643E0,3.3162174E0,1.8192582E0,1.9527893E0,0E0,0E0,0E0,0E0,0E0,0E0,0E0,0E0,0E0,0E0,0E0],"parents":[2147483647,0,0,1,1,2,2,3,3,4,4,5,5,6,6,8,8,10,10,11,11,12,12,13,13],"right_children":[2,4,6,8,10,12,14,-1,16,-1,18,20,22,24,-1,-1,-1,-1,-1,-1,-1,-1,-1,-1,-1],"split_conditions":[7.658E0,7.532E0,7.792E0,7.364E0,8.6466424E-2,1.0337959E-1,8.058E0,-8.3890654E-2,2.8354996E-1,6.982874E-2,5.4822505E-1,2.3112503E-1,4.8935002E-1,2.9799503E-1,8.309858E-2,-6.260122E-2,-1.6423581E-2,-6.391497E-2,-8.150405E-3,3.9704293E-3,4.770506E-2,-6.0082108E-2,-7.595494E-4,7.2808616E-2,1.9782973E-2],"split_indices":[6,6,6,6,5,5,6,0,4,0,2,4,2,4,0,0,0,0,0,0,0,0,0,0,0],"split_type":[0,0,0,0,0,0,0,0,0,0,0,0,0,0,0,0,0,0,0,0,0,0,0,0,0],"sum_hessian":[5.679123E3,2.815928E3,2.863195E3,2.7902698E3,2.5658134E1,4.193251E1,2.8212627E3,2.7673325E3,2.2937305E1,3.6872842E0,2.1970852E1,3.769736E1,4.2351475E0,1.992264E2,2.6220361E3,2.0710804E1,2.2265022E0,5.2288613E0,1.674199E1,5.1983876E0,3.2498974E1,1.7387009E0,2.4964464E0,1.965789E2,2.6475027E0],"tree_param":{"num_deleted":"0","num_feature":"7","num_nodes":"25","size_leaf_vector":"1"}},{"base_weights":[1.5073214E-3,-1.6038233E0,1.5780667E0,-1.6187522E0,-4.944981E-2,7.030849E-1,1.5912646E0,-8.1159286E-2,-1.0543461E0,6.1703917E-2,-3.5215178E-1,8.9672446E-1,-3.917512E-1,1.2852422E0,8.01858E-2,-6.677801E-2,-3.731325E-2,-7.7213096E-3,-5.9033968E-2,-6.1766882E-3,4.7884177E-2,2.7142588E-2,-3.379519E-2,6.724451E-2,2.040338E-2],"categories":[],"categories_nodes":[],"categories_segments":[],"categories_sizes":[],"default_left":[0,0,0,0,0,1,0,0,0,0,1,0,0,1,0,0,0,0,0,0,0,0,0,0,0],"id":6,"left_children":[1,3,5,7,9,11,13,-1,15,-1,17,19,21,23,-1,-1,-1,-1,-1,-1,-1,-1,-1,-1,-1],"loss_changes":[1.3997021E4,6.35083E1,3.110254E1,5.07959E0,1.0963539E1,9.521063E0,8.410156E0,0E0,1.0832348E0,0E0,3.537433E0,2.423006E0,2.2780232E0,5.3359985E0,0E0,0E0,0E0,0E0,0E0,0E0,0E0,0E0,0E0,0E0,0E0],"parents":[2147483647,0,0,1,1,2,2,3,3,4,4,5,5,6,6,8,8,10,10,11,11,12,12,13,13],"right_children":[2,4,6,8,10,12,14,-1,16,-1,18,20,22,24,-1,-1,-1,-1,-1,-1,-1,-1,-1,-1,-1],"split_conditions":[7.658E0,7.532E0,7.792E0,7.364E0,8.824955E-2,1.3446774E-1,7.974E0,-8.1159286E-2,2.8166002E-1,6.1703917E-2,1.9282046E-1,1.2700698E-1,9.145609E-2,2.2396238E-1,8.01858E-2,-6.677801E-2,-3.731325E-2,-7.7213096E-3,-5.9033968E-2,-6.1766882E-3,4.7884177E-2,2.7142588E-2,-3.379519E-2,6.724451E-2,2.040338E-2],"split_indices":[6,6,6,6,5,1,6,0,4,0,3,3,5,3,0,0,0,0,0,0,0,0,0,0,0],"split_type":[0,0,0,0,0,0,0,0,0,0,0,0,0,0,0,0,0,0,0,0,0,0,0,0,0],"sum_hessian":[5.5284546E3,2.739224E3,2.7892305E3,2.7131245E3,2.6099712E1,4.22529E1,2.7469775E3,2.6901172E3,2.3007334E1,4.3934727E0,2.170624E1,3.605665E1,6.196253E0,1.1147362E2,2.635504E3,1.0284566E1,1.2722768E1,1.8481962E1,3.2242782E0,1.975003E0,3.4081646E1,1.2323899E0,4.963863E0,1.03876785E2,7.5968313E0],"tree_param":{"num_deleted":"0","num_feature":"7","num_nodes":"25","size_leaf_vector":"1"}},{"base_weights":[6.656506E-3,-1.5705129E0,1.5131046E0,-7.873522E-2,-4.9321707E-2,3.8863137E-1,1.5421959E0,-7.3023444E-1,5.005203E-1,1.2307663E0,7.773319E-2,-1.716695E-3,-5.2510332E-2,4.076299E-3,3.7858915E-2,6.24949E-2,-4.609462E-3],"categories":[],"categories_nodes":[],"categories_segments":[],"categories_sizes":[],"default_left":[0,0,0,0,0,0,0,0,0,1,0,0,0,0,0,0,0],"id":7,"left_children":[1,3,5,-1,-1,7,9,11,13,15,-1,-1,-1,-1,-1,-1,-1],"loss_changes":[1.2938649E4,4.9594727E0,9.051514E1,0E0,0E0,9.326362E0,8.627441E0,1.503468E0,6.9997616E0,2.8816376E0,0E0,0E0,0E0,0E0,0E0,0E0,0E0],"parents":[2147483647,0,0,1,1,2,2,5,5,6,6,7,7,8,8,9,9],"right_children":[2,4,6,-1,-1,8,10,12,14,16,-1,-1,-1,-1,-1,-1,-1],"split_conditions":[7.532E0,7.364E0,7.792E0,-7.873522E-2,-4.9321707E-2,4.7225493E-1,7.974E0,4.2718E-1,7.658E0,1.2569855E-1,7.773319E-2,-1.716695E-3,-5.2510332E-2,4.076299E-3,3.7858915E-2,6.24949E-2,-4.609462E-3],"split_indices":[6,6,6,0,0,2,6,0,6,5,0,0,0,0,0,0,0],"split_type":[0,0,0,0,0,0,0,0,0,0,0,0,0,0,0,0,0],"sum_hessian":[5.4437344E3,2.6594216E3,2.7843127E3,2.6387896E3,2.0632113E1,7.0578896E1,2.713734E3,5.913971E0,6.4664925E1,1.0829903E2,2.6054348E3,2.2115095E0,3.7024617E0,2.5064596E1,3.9600327E1,1.0680964E2,1.4893838E0],"tree_param":{"num_deleted":"0","num_feature":"7","num_nodes":"17","size_leaf_vector":"1"}},{"base_weights":[3.4776405E-3,-1.51258E0,1.4864137E0,-1.5266329E0,-5.9368435E-2,5.673165E-1,1.5005374E0,-7.655709E-2,-9.322778E-1,-3.7821725E-1,7.360211E-1,-4.1297883E-1,7.002169E-1,1.2163856E0,7.560257E-2,-5.061515E-2,9.701488E-4,-5.3445064E-3,-5.5021446E-2,4.6531577E-2,-3.184976E-3,2.5872007E-2,-4.743814E-2,3.889039E-2,-2.3419794E-2,6.420194E-2,2.1662775E-2],"categories":[],"categories_nodes":[],"categories_segments":[],"categories_sizes":[],"default_left":[0,0,0,0,1,0,0,0,1,1,0,0,1,1,0,0,0,0,0,0,0,0,0,0,0,0,0],"id":8,"left_children":[1,3,5,7,9,11,13,-1,15,17,19,21,23,25,-1,-1,-1,-1,-1,-1,-1,-1,-1,-1,-1,-1,-1],"loss_changes":[1.1979437E4,5.3716797E1,3.4115234E1,5.565918E0,6.9420767E0,5.80976E0,6.8374023E0,0E0,1.7106724E0,3.687264E0,1.2823143E0,3.3263774E0,3.7814808E0,5.186798E0,0E0,0E0,0E0,0E0,0E0,0E0,0E0,0E0,0E0,0E0,0E0,0E0,0E0],"parents":[2147483647,0,0,1,1,2,2,3,3,4,4,5,5,6,6,8,8,9,9,10,10,11,11,12,12,13,13],"right_children":[2,4,6,8,10,12,14,-1,16,18,20,22,24,26,-1,-1,-1,-1,-1,-1,-1,-1,-1,-1,-1,-1,-1],"split_conditions":[7.658E0,7.532E0,7.792E0,7.364E0,5.457901E-1,5.2053005E-1,7.974E0,-7.655709E-2,2.8354996E-1,3.9780003E-1,1.9060537E-1,1.7186123E-1,4.7205505E-1,2.1518996E-1,7.560257E-2,-5.061515E-2,9.701488E-4,-5.3445064E-3,-5.5021446E-2,4.6531577E-2,-3.184976E-3,2.5872007E-2,-4.743814E-2,3.889039E-2,-2.3419794E-2,6.420194E-2,2.1662775E-2],"split_indices":[6,6,6,6,2,2,6,0,4,0,3,3,0,3,0,0,0,0,0,0,0,0,0,0,0,0,0],"split_type":[0,0,0,0,0,0,0,0,0,0,0,0,0,0,0,0,0,0,0,0,0,0,0,0,0,0,0],"sum_hessian":[5.3264175E3,2.633786E3,2.6926316E3,2.6085103E3,2.527549E1,4.137422E1,2.6512573E3,2.5873062E3,2.1204102E1,1.8417093E1,6.858396E0,4.687922E0,3.6686302E1,1.0739885E2,2.5438586E3,1.9500628E1,1.7034748E0,1.4222033E1,4.1950603E0,5.3844137E0,1.4739822E0,1.7255847E0,2.962337E0,3.471574E1,1.9705601E0,9.826985E1,9.129001E0],"tree_param":{"num_deleted":"0","num_feature":"7","num_nodes":"27","size_leaf_vector":"1"}},{"base_weights":[4.324652E-4,-1.4732707E0,1.4448676E0,-7.459881E-2,-4.8886105E-1,5.3623056E-1,1.4594141E0,-8.580518E-1,-1.4993283E-1,-3.1687636E-2,6.151966E-1,1.2358706E0,7.3813744E-2,-5.5912323E-2,-2.6338289E-2,-2.2893092E-2,3.133447E-2,-3.4172107E-3,3.552259E-2,2.1697938E-2,6.303097E-2],"categories":[],"categories_nodes":[],"categories_segments":[],"categories_sizes":[],"default_left":[0,0,0,0,0,0,0,0,1,0,0,0,0,0,0,0,0,0,0,0,0],"id":9,"left_children":[1,3,5,-1,7,9,11,13,15,-1,17,19,-1,-1,-1,-1,-1,-1,-1,-1,-1],"loss_changes":[1.1052962E4,4.6597168E1,3.3876953E1,0E0,6.0545406E0,4.3533134E0,7.901367E0,1.4314117E0,6.7378263E0,0E0,2.6982012E0,3.1664734E0,0E0,0E0,0E0,0E0,0E0,0E0,0E0,0E0,0E0],"parents":[2147483647,0,0,1,1,2,2,4,4,5,5,6,6,7,7,8,8,10,10,11,11],"right_children":[2,4,6,-1,8,10,12,14,16,-1,18,20,-1,-1,-1,-1,-1,-1,-1,-1,-1],"split_conditions":[7.658E0,7.364E0,7.792E0,-7.459881E-2,7.532E0,4.4537503E-1,8.058E0,7.0763004E-1,5.457901E-1,-3.1687636E-2,2.27315E-1,4.27375E-1,7.3813744E-2,-5.5912323E-2,-2.6338289E-2,-2.2893092E-2,3.133447E-2,-3.4172107E-3,3.552259E-2,2.1697938E-2,6.303097E-2],"split_indices":[6,6,6,0,6,2,6,2,2,0,4,2,0,0,0,0,0,0,0,0,0],"split_type":[0,0,0,0,0,0,0,0,0,0,0,0,0,0,0,0,0,0,0,0,0],"sum_hessian":[5.19043E3,2.569176E3,2.6212542E3,2.5207615E3,4.8414455E1,4.189939E1,2.5793547E3,2.2439594E1,2.5974861E1,2.2049267E0,3.969446E1,1.86114E2,2.3932407E3,1.1237838E1,1.1201756E1,1.8893911E1,7.0809493E0,4.889616E0,3.4804848E1,6.126849E0,1.7998715E2],"tree_param":{"num_deleted":"0","num_feature":"7","num_nodes":"21","size_leaf_vector":"1"}},{"base_weights":[-1.4640846E-4,-1.4511399E0,1.4006193E0,-7.282453E-2,-8.16065E-1,3.489263E-1,1.4279488E0,-5.7275355E-2,-5.255464E-1,-5.4510027E-2,4.4369623E-1,1.1678919E0,7.192409E-2,1.0610659E-2,-3.1366955E-2,5.836806E-3,3.05344E-2,6.206822E-2,1.5897041E-2],"categories":[],"categories_nodes":[],"categories_segments":[],"categories_sizes":[],"default_left":[0,0,0,0,0,0,0,0,0,0,0,1,0,0,0,0,0,0,0],"id":10,"left_children":[1,3,5,-1,7,9,11,-1,13,-1,15,17,-1,-1,-1,-1,-1,-1,-1],"loss_changes":[1.02601045E4,7.2373047E0,7.3325195E1,0E0,1.5983963E0,9.536691E0,5.1762695E0,0E0,1.1893721E0,0E0,3.3677921E0,6.0219727E0,0E0,0E0,0E0,0E0,0E0,0E0,0E0],"parents":[2147483647,0,0,1,1,2,2,4,4,5,5,6,6,8,8,10,10,11,11],"right_children":[2,4,6,-1,8,10,12,-1,14,-1,16,18,-1,-1,-1,-1,-1,-1,-1],"split_conditions":[7.532E0,7.364E0,7.792E0,-7.282453E-2,2.8166002E-1,4.4537503E-1,7.974E0,-5.7275355E-2,1.6965216E-1,-5.4510027E-2,7.658E0,2.1633221E-1,7.192409E-2,1.0610659E-2,-3.1366955E-2,5.836806E-3,3.05344E-2,6.206822E-2,1.5897041E-2],"split_indices":[6,6,6,0,4,2,6,0,3,0,6,3,0,0,0,0,0,0,0],"split_type":[0,0,0,0,0,0,0,0,0,0,0,0,0,0,0,0,0,0,0],"sum_hessian":[5.046017E3,2.4785535E3,2.5674639E3,2.4565627E3,2.1990646E1,6.53776E1,2.5020862E3,8.925896E0,1.306475E1,3.3903193E0,6.198728E1,1.0175158E2,2.4003347E3,1.4525309E0,1.1612219E1,2.1530622E1,4.0456657E1,9.3231804E1,8.51977E0],"tree_param":{"num_deleted":"0","num_feature":"7","num_nodes":"19","size_leaf_vector":"1"}},{"base_weights":[-4.2048038E-4,-1.4193438E0,1.358156E0,-7.122232E-2,-4.0252134E-2,3.3245775E-1,1.3870115E0,4.7942305E-1,-5.1859486E-1,1.1449082E0,7.028392E-2,1.5127546E-2,4.2803776E-2,-6.0043015E-2,-7.1877274E-3,2.2079315E-2,5.842455E-2],"categories":[],"categories_nodes":[],"categories_segments":[],"categories_sizes":[],"default_left":[0,0,0,0,0,1,0,1,0,0,0,0,0,0,0,0,0],"id":11,"left_children":[1,3,5,-1,-1,7,9,11,13,15,-1,-1,-1,-1,-1,-1,-1],"loss_changes":[9.460123E3,6.3774414E0,7.3739746E1,0E0,0E0,8.993221E0,9.40918E0,3.7474031E0,2.5831835E0,2.468216E0,0E0,0E0,0E0,0E0,0E0,0E0,0E0],"parents":[2147483647,0,0,1,1,2,2,5,5,6,6,7,7,8,8,9,9],"right_children":[2,4,6,-1,-1,8,10,12,14,16,-1,-1,-1,-1,-1,-1,-1],"split_conditions":[7.532E0,7.364E0,7.792E0,-7.122232E-2,-4.0252134E-2,1.3446774E-1,8.058E0,1.2700698E-1,2.2602499E-1,4.27375E-1,7.028392E-2,1.5127546E-2,4.2803776E-2,-6.0043015E-2,-7.1877274E-3,2.2079315E-2,5.842455E-2],"split_indices":[6,6,6,0,0,1,6,3,4,2,0,0,0,0,0,0,0],"split_type":[0,0,0,0,0,0,0,0,0,0,0,0,0,0,0,0,0],"sum_hessian":[4.905427E3,2.3994011E3,2.5060254E3,2.3783274E3,2.1073708E1,6.891469E1,2.4371108E3,5.913887E1,9.775814E0,1.7891902E2,2.2581917E3,4.1468807E1,1.7670067E1,2.6850197E0,7.0907946E0,6.444589E0,1.7247444E2],"tree_param":{"num_deleted":"0","num_feature":"7","num_nodes":"17","size_leaf_vector":"1"}},{"base_weights":[4.268512E-4,-1.3759509E0,1.3441099E0,-1.3905437E0,-7.797854E-2,4.3735448E-1,1.3586993E0,-6.976368E-2,-4.1812662E-2,5.4623175E-1,-3.2054827E-1,6.3265425E-1,-6.810017E-1,1.1278404E0,6.882077E-2,4.6795998E-2,-1.1917437E-2,-4.495866E-3,-4.7219638E-2,5.3302933E-2,2.0607473E-2,-5.456964E-2,-6.998995E-4,5.7108857E-2,-1.5878187E-2],"categories":[],"categories_nodes":[],"categories_segments":[],"categories_sizes":[],"default_left":[0,0,0,0,0,1,0,0,0,0,1,0,0,1,0,0,0,0,0,0,0,0,0,0,0],"id":12,"left_children":[1,3,5,7,9,11,13,-1,-1,15,17,19,21,23,-1,-1,-1,-1,-1,-1,-1,-1,-1,-1,-1],"loss_changes":[8.871762E3,4.477539E1,3.1517578E1,4.9765625E0,4.324621E0,9.148178E0,8.216309E0,0E0,0E0,2.680986E0,2.8452868E0,2.8573875E0,1.7407839E0,4.0049133E0,0E0,0E0,0E0,0E0,0E0,0E0,0E0,0E0,0E0,0E0,0E0],"parents":[2147483647,0,0,1,1,2,2,3,3,4,4,5,5,6,6,9,9,10,10,11,11,12,12,13,13],"right_children":[2,4,6,8,10,12,14,-1,-1,16,18,20,22,24,-1,-1,-1,-1,-1,-1,-1,-1,-1,-1,-1],"split_conditions":[7.658E0,7.532E0,7.792E0,7.364E0,1.9060537E-1,1.3446774E-1,8.058E0,-6.976368E-2,-4.1812662E-2,1.22599594E-1,1.02611594E-1,4.7086495E-1,1.5270986E-1,2.9799503E-1,6.882077E-2,4.6795998E-2,-1.1917437E-2,-4.495866E-3,-4.7219638E-2,5.3302933E-2,2.0607473E-2,-5.456964E-2,-6.998995E-4,5.7108857E-2,-1.5878187E-2],"split_indices":[6,6,6,6,3,1,6,0,0,1,1,0,1,4,0,0,0,0,0,0,0,0,0,0,0],"split_type":[0,0,0,0,0,0,0,0,0,0,0,0,0,0,0,0,0,0,0,0,0,0,0,0,0],"sum_hessian":[4.795062E3,2.3687012E3,2.4263608E3,2.3422961E3,2.6405087E1,3.891186E1,2.387449E3,2.3209731E3,2.132297E1,7.0391707E0,1.9365915E1,3.349661E1,5.415251E0,1.7476175E2,2.2126873E3,4.5742993E0,2.4648714E0,1.4974194E1,4.391721E0,1.000232E1,2.349429E1,2.9586217E0,2.456629E0,1.7325307E2,1.5086776E0],"tree_param":{"num_deleted":"0","num_feature":"7","num_nodes":"25","size_leaf_vector":"1"}},{"base_weights":[5.9092185E-3,-1.3639711E0,1.3033788E0,-6.842727E-2,-8.133657E-1,3.33729E-1,1.331811E0,-6.009034E-2,-1.9525347E-2,4.154652E-1,-7.2403455E-1,9.870232E-1,6.732293E-2,4.5425664E-3,3.0274687E-2,1.5597265E-3,-5.3855415E-2,5.3280693E-2,6.872111E-3],"categories":[],"categories_nodes":[],"categories_segments":[],"categories_sizes":[],"default_left":[0,0,0,0,0,1,0,0,0,0,0,1,0,0,0,0,0,0,0],"id":13,"left_children":[1,3,5,-1,7,9,11,-1,-1,13,15,17,-1,-1,-1,-1,-1,-1,-1],"loss_changes":[8.268139E3,4.585449E0,6.5420166E1,0E0,2.9979582E0,6.3002267E0,1.0391602E1,0E0,0E0,3.9576235E0,1.4580641E0,6.418152E0,0E0,0E0,0E0,0E0,0E0,0E0,0E0],"parents":[2147483647,0,0,1,1,2,2,4,4,5,5,6,6,9,9,10,10,11,11],"right_children":[2,4,6,-1,8,10,12,-1,-1,14,16,18,-1,-1,-1,-1,-1,-1,-1],"split_conditions":[7.532E0,7.364E0,7.792E0,-6.842727E-2,4.9646002E-1,1.5881316E-1,7.974E0,-6.009034E-2,-1.9525347E-2,7.658E0,4.2718E-1,2.1633221E-1,6.732293E-2,4.5425664E-3,3.0274687E-2,1.5597265E-3,-5.3855415E-2,5.3280693E-2,6.872111E-3],"split_indices":[6,6,6,0,0,1,6,0,0,6,0,3,0,0,0,0,0,0,0],"split_type":[0,0,0,0,0,0,0,0,0,0,0,0,0,0,0,0,0,0,0],"sum_hessian":[4.649873E3,2.2617964E3,2.3880767E3,2.2416875E3,2.0108994E1,6.839146E1,2.3196853E3,9.520914E0,1.0588079E1,6.4049416E1,4.3420444E0,9.7318E1,2.2223672E3,2.4195625E1,3.9853786E1,1.6736768E0,2.6683676E0,8.884508E1,8.472922E0],"tree_param":{"num_deleted":"0","num_feature":"7","num_nodes":"19","size_leaf_vector":"1"}},{"base_weights":[-3.067958E-3,-1.3258464E0,1.2891072E0,-1.3393086E0,-1.2560178E-1,7.028262E-1,1.314786E0,-6.720907E-2,-4.134589E-2,-3.2794166E-1,4.36174E-1,4.673837E-1,8.549345E-1,1.2000635E0,6.669368E-2,-8.501164E-3,-5.0835785E-2,3.729395E-2,-2.3157796E-2,-1.4895457E-2,2.9270703E-2,4.6527933E-2,7.5669633E-3,-8.782159E-3,6.026199E-2],"categories":[],"categories_nodes":[],"categories_segments":[],"categories_sizes":[],"default_left":[0,0,0,0,1,0,0,0,0,1,0,0,1,0,0,0,0,0,0,0,0,0,0,0,0],"id":14,"left_children":[1,3,5,7,9,11,13,-1,-1,15,17,19,21,23,-1,-1,-1,-1,-1,-1,-1,-1,-1,-1,-1],"loss_changes":[7.724655E3,3.5915283E1,3.3492676E1,4.402588E0,3.0840726E0,3.1128159E0,3.192871E0,0E0,0E0,1.9582627E0,2.3732884E0,3.8507137E0,2.9653358E0,2.5062866E0,0E0,0E0,0E0,0E0,0E0,0E0,0E0,0E0,0E0,0E0,0E0],"parents":[2147483647,0,0,1,1,2,2,3,3,4,4,5,5,6,6,9,9,10,10,11,11,12,12,13,13],"right_children":[2,4,6,8,10,12,14,-1,-1,16,18,20,22,24,-1,-1,-1,-1,-1,-1,-1,-1,-1,-1,-1],"split_conditions":[7.658E0,7.532E0,7.918E0,7.364E0,5.5647504E-1,7.792E0,8.252E0,-6.720907E-2,-4.134589E-2,4.4544998E-1,1.9060537E-1,5.2053005E-1,2.1212643E-1,3.6830002E-1,6.669368E-2,-8.501164E-3,-5.0835785E-2,3.729395E-2,-2.3157796E-2,-1.4895457E-2,2.9270703E-2,4.6527933E-2,7.5669633E-3,-8.782159E-3,6.026199E-2],"split_indices":[6,6,6,6,2,6,6,0,0,0,3,2,3,2,0,0,0,0,0,0,0,0,0,0,0],"split_type":[0,0,0,0,0,0,0,0,0,0,0,0,0,0,0,0,0,0,0,0,0,0,0,0,0],"sum_hessian":[4.5172935E3,2.2322004E3,2.285093E3,2.207327E3,2.4873512E1,9.707665E1,2.1880164E3,2.1849248E3,2.2402008E1,1.8592958E1,6.2805533E0,3.969972E1,5.737693E1,3.2122363E2,1.8667927E3,1.6139442E1,2.4535155E0,4.7986546E0,1.4818988E0,5.101069E0,3.459865E1,5.1517162E1,5.8597693E0,1.0806795E0,3.2014294E2],"tree_param":{"num_deleted":"0","num_feature":"7","num_nodes":"25","size_leaf_vector":"1"}},{"base_weights":[1.8292332E-4,-2.0640004E-1,7.098019E-1,-1.0790583E0,-6.820078E-2,5.4390705E-1,9.2240673E-1,-6.1262228E-2,-7.9627424E-1,-4.349688E-2,-4.5879415E-1,6.559597E-1,2.683933E-1,4.422792E-2,5.551216E-2,-4.6914365E-2,-1.7149491E-2,-3.7786232E-3,1.5148788E-2,-1.6539076E-2,-4.1818406E-2,1.831143E-2,3.890918E-2,-2.801943E-3,1.8264063E-2],"categories":[],"categories_nodes":[],"categories_segments":[],"categories_sizes":[],"default_left":[1,0,0,0,1,0,0,0,0,1,0,0,0,0,0,0,0,0,0,0,0,0,0,0,0],"id":15,"left_children":[1,3,5,7,9,11,13,-1,15,17,19,21,23,-1,-1,-1,-1,-1,-1,-1,-1,-1,-1,-1,-1],"loss_changes":[6.3835205E2,4.0667355E2,3.4128143E1,1.8082825E1,2.8084719E1,1.6925354E1,2.0671082E0,0E0,9.975632E0,3.0478868E1,8.092602E0,1.3635345E1,5.107935E0,0E0,0E0,0E0,0E0,0E0,0E0,0E0,0E0,0E0,0E0,0E0,0E0],"parents":[2147483647,0,0,1,1,2,2,3,3,4,4,5,5,6,6,8,8,9,9,10,10,11,11,12,12],"right_children":[2,4,6,8,10,12,14,-1,16,18,20,22,24,-1,-1,-1,-1,-1,-1,-1,-1,-1,-1,-1,-1],"split_conditions":[5.0773E-1,4.1397494E-1,5.9566504E-1,3.6550504E-1,1.09576456E-1,1.0189012E-1,6.8561995E-1,-6.1262228E-2,4.6337995E-1,2.3232499E-1,1.2208704E-1,2.3333499E-1,4.0990996E-1,4.422792E-2,5.551216E-2,-4.6914365E-2,-1.7149491E-2,-3.7786232E-3,1.5148788E-2,-1.6539076E-2,-4.1818406E-2,1.831143E-2,3.890918E-2,-2.801943E-3,1.8264063E-2],"split_indices":[2,2,2,2,5,5,2,0,0,4,5,4,0,0,0,0,0,0,0,0,0,0,0,0,0],"split_type":[0,0,0,0,0,0,0,0,0,0,0,0,0,0,0,0,0,0,0,0,0,0,0,0,0],"sum_hessian":[4.352523E3,3.371676E3,9.808469E2,4.600275E2,2.9116487E3,5.529445E2,4.2790244E2,3.010605E2,1.5896701E2,2.7394949E3,1.721538E2,3.920963E2,1.6084819E2,3.60893E2,6.7009445E1,1.2022941E2,3.8737595E1,2.5080845E3,2.3141043E2,1.2996616E2,4.2187637E1,1.175176E2,2.745787E2,3.708605E1,1.2376214E2],"tree_param":{"num_deleted":"0","num_feature":"7","num_nodes":"25","size_leaf_vector":"1"}},{"base_weights":[-4.1166004E-3,-1.9909045E-1,6.62971E-1,-1.1140445E0,-7.945271E-2,7.535209E-1,2.53136E-1,-6.1455257E-2,-8.996948E-1,-4.5862403E-2,-5.336267E-1,6.219039E-1,9.036192E-1,1.05097E-1,4.388727E-1,-8.889841E-3,-4.8612732E-2,-3.739122E-3,1.2827254E-2,-9.997426E-3,-3.2504655E-2,1.9015383E-2,3.7001666E-2,4.2221032E-2,5.1446952E-2,1.8938832E-3,2.4891002E-2,4.983363E-3,2.552194E-2],"categories":[],"categories_nodes":[],"categories_segments":[],"categories_sizes":[],"default_left":[1,0,0,0,1,0,0,0,0,1,0,0,0,0,0,0,0,0,0,0,0,0,0,0,0,0,0,0,0],"id":16,"left_children":[1,3,5,7,9,11,13,-1,15,17,19,21,23,25,27,-1,-1,-1,-1,-1,-1,-1,-1,-1,-1,-1,-1,-1,-1],"loss_changes":[5.6329083E2,3.667572E2,3.6159668E1,8.450256E0,4.520694E1,1.527713E1,4.8691044E0,0E0,7.111679E0,2.4172659E1,7.801159E0,1.2001602E1,1.8936768E0,2.6418462E0,1.8661747E0,0E0,0E0,0E0,0E0,0E0,0E0,0E0,0E0,0E0,0E0,0E0,0E0,0E0,0E0],"parents":[2147483647,0,0,1,1,2,2,3,3,4,4,5,5,6,6,8,8,9,9,10,10,11,11,12,12,13,13,14,14],"right_children":[2,4,6,8,10,12,14,-1,16,18,20,22,24,26,28,-1,-1,-1,-1,-1,-1,-1,-1,-1,-1,-1,-1,-1,-1],"split_conditions":[5.0773E-1,3.9735502E-1,1.0300082E-1,3.4803003E-1,1.0983197E-1,6.00705E-1,5.5647504E-1,-6.1455257E-2,1.27711E-1,4.1357002E-1,1.4520602E-1,4.1511998E-1,6.641849E-1,2.4124211E-1,4.1044497E-1,-8.889841E-3,-4.8612732E-2,-3.739122E-3,1.2827254E-2,-9.997426E-3,-3.2504655E-2,1.9015383E-2,3.7001666E-2,4.2221032E-2,5.1446952E-2,1.8938832E-3,2.4891002E-2,4.983363E-3,2.552194E-2],"split_indices":[2,2,5,2,5,2,2,0,1,0,1,0,2,3,0,0,0,0,0,0,0,0,0,0,0,0,0,0,0],"split_type":[0,0,0,0,0,0,0,0,0,0,0,0,0,0,0,0,0,0,0,0,0,0,0,0,0,0,0,0,0],"sum_hessian":[4.328838E3,3.3503206E3,9.7851746E2,3.8646198E2,2.9638586E3,8.007577E2,1.7775975E2,2.4839308E2,1.380689E2,2.7607751E3,2.030835E2,4.2938525E2,3.7137244E2,9.97896E1,7.797015E1,1.2925308E1,1.2514358E2,2.5204868E3,2.4028818E2,5.3246933E1,1.4983658E2,1.4239034E2,2.869949E2,2.5748132E2,1.13891106E2,8.614182E1,1.3647777E1,1.40011E1,6.3969055E1],"tree_param":{"num_deleted":"0","num_feature":"7","num_nodes":"29","size_leaf_vector":"1"}},{"base_weights":[-1.8187512E-3,-1.2967947E0,1.2608764E0,-1.3112175E0,-5.595574E-2,5.099693E-1,1.2814605E0,-6.58194E-2,-7.472744E-1,6.073298E-2,-3.0898222E-1,6.038523E-1,-5.0179448E-2,9.765215E-1,1.2914761E0,-5.1857382E-2,-2.3099704E-2,-5.2644003E-2,-8.174959E-3,-2.1371195E-2,3.270785E-2,5.0304115E-2,-2.0310294E-2,6.0409784E-2,6.540475E-2],"categories":[],"categories_nodes":[],"categories_segments":[],"categories_sizes":[],"default_left":[0,0,0,0,0,1,0,0,0,0,0,0,0,1,0,0,0,0,0,0,0,0,0,0,0],"id":17,"left_children":[1,3,5,7,9,11,13,-1,15,-1,17,19,-1,21,23,-1,-1,-1,-1,-1,-1,-1,-1,-1,-1],"loss_changes":[7.029872E3,3.7911377E1,3.299121E1,5.133545E0,8.551585E0,9.094619E0,5.208008E0,0E0,1.2883186E0,0E0,2.2093956E0,3.2300758E0,0E0,3.3292923E0,1.2531738E0,0E0,0E0,0E0,0E0,0E0,0E0,0E0,0E0,0E0,0E0],"parents":[2147483647,0,0,1,1,2,2,3,3,4,4,5,5,6,6,8,8,10,10,11,11,13,13,14,14],"right_children":[2,4,6,8,10,12,14,-1,16,-1,18,20,-1,22,24,-1,-1,-1,-1,-1,-1,-1,-1,-1,-1],"split_conditions":[7.658E0,7.532E0,7.842E0,7.364E0,8.5799746E-2,1.614461E-1,7.974E0,-6.58194E-2,2.7998E-1,6.073298E-2,2.2982001E-1,2.11165E-1,-5.0179448E-2,1.8611623E-1,8.31E0,-5.1857382E-2,-2.3099704E-2,-5.2644003E-2,-8.174959E-3,-2.1371195E-2,3.270785E-2,5.0304115E-2,-2.0310294E-2,6.0409784E-2,6.540475E-2],"split_indices":[6,6,6,6,5,1,6,0,4,0,4,4,0,1,6,0,0,0,0,0,0,0,0,0,0],"split_type":[0,0,0,0,0,0,0,0,0,0,0,0,0,0,0,0,0,0,0,0,0,0,0,0,0],"sum_hessian":[4.2971953E3,2.1214666E3,2.1757288E3,2.097035E3,2.4431711E1,5.873789E1,2.116991E3,2.0766616E3,2.0373392E1,3.4261575E0,2.1005554E1,5.5873222E1,2.8646672E0,7.045297E1,2.0465378E3,8.798103E0,1.157529E1,2.4157872E0,1.8589766E1,2.2500103E0,5.362321E1,6.9244995E1,1.2079729E0,3.5271527E2,1.6938226E3],"tree_param":{"num_deleted":"0","num_feature":"7","num_nodes":"25","size_leaf_vector":"1"}},{"base_weights":[5.4468703E-3,-1.2750866E0,1.2435296E0,-6.480725E-2,-3.4060693E-1,7.3615617E-1,1.2666409E0,-1.0169513E-1,-8.315096E-1,8.0539423E-1,-4.3625596E-1,1.1926615E0,6.469744E-2,-2.4044216E-2,1.0366616E-2,-2.2493115E-2,-5.8506336E-2,1.905359E-2,4.556358E-2,-3.804566E-2,2.3459373E-2,5.9784442E-2,-1.2192532E-2],"categories":[],"categories_nodes":[],"categories_segments":[],"categories_sizes":[],"default_left":[0,0,0,0,1,1,0,0,0,0,0,1,0,0,0,0,0,0,0,0,0,0,0],"id":18,"left_children":[1,3,5,-1,7,9,11,13,15,17,19,21,-1,-1,-1,-1,-1,-1,-1,-1,-1,-1,-1],"loss_changes":[6.642729E3,4.00896E1,2.404712E1,0E0,5.3981166E0,8.078911E0,2.5698242E0,3.9178555E0,1.4332752E0,3.7068138E0,2.1081321E0,2.734436E0,0E0,0E0,0E0,0E0,0E0,0E0,0E0,0E0,0E0,0E0,0E0],"parents":[2147483647,0,0,1,1,2,2,4,4,5,5,6,6,7,7,8,8,9,9,10,10,11,11],"right_children":[2,4,6,-1,8,10,12,14,16,18,20,22,-1,-1,-1,-1,-1,-1,-1,-1,-1,-1,-1],"split_conditions":[7.658E0,7.364E0,7.918E0,-6.480725E-2,8.990671E-2,1.1192614E-1,8.438E0,7.532E0,4.4398004E-1,7.734E0,7.89E0,1.3458826E-1,6.469744E-2,-2.4044216E-2,1.0366616E-2,-2.2493115E-2,-5.8506336E-2,1.905359E-2,4.556358E-2,-3.804566E-2,2.3459373E-2,5.9784442E-2,-1.2192532E-2],"split_indices":[6,6,6,0,5,5,6,6,0,6,6,5,0,0,0,0,0,0,0,0,0,0,0],"split_type":[0,0,0,0,0,0,0,0,0,0,0,0,0,0,0,0,0,0,0,0,0,0,0],"sum_hessian":[4.187922E3,2.0586528E3,2.1292688E3,2.0129053E3,4.574764E1,9.419557E1,2.0350732E3,3.158369E1,1.4163947E1,8.923854E1,4.9570303E0,5.607166E2,1.4743567E3,1.3932198E1,1.7651493E1,7.7535887E0,6.4103584E0,1.873877E1,7.049977E1,3.766229E0,1.1908014E0,5.597047E2,1.0118902E0],"tree_param":{"num_deleted":"0","num_feature":"7","num_nodes":"23","size_leaf_vector":"1"}},{"base_weights":[1.521719E-3,-1.2737108E0,1.204645E0,-6.38889E-2,-8.267624E-1,1.4431727E-1,1.2386905E0,-5.814139E-2,-2.7248368E-2,2.6892763E-1,-7.109521E-1,8.906645E-1,1.2536267E0,4.3922164E-2,5.767584E-3,-4.5100167E-2,-1.446487E-3,4.7478955E-2,1.5893053E-2,5.8341708E-2,6.3544884E-2],"categories":[],"categories_nodes":[],"categories_segments":[],"categories_sizes":[],"default_left":[0,0,0,0,0,1,0,0,0,0,0,1,0,0,0,0,0,0,0,0,0],"id":19,"left_children":[1,3,5,-1,7,9,11,-1,-1,13,15,17,19,-1,-1,-1,-1,-1,-1,-1,-1],"loss_changes":[6.186555E3,2.501709E0,7.471997E1,0E0,1.306262E0,7.190834E0,9.33252E0,0E0,0E0,5.332663E0,1.0979662E0,2.606163E0,1.4025879E0,0E0,0E0,0E0,0E0,0E0,0E0,0E0,0E0],"parents":[2147483647,0,0,1,1,2,2,4,4,5,5,6,6,9,9,10,10,11,11,12,12],"right_children":[2,4,6,-1,8,10,12,-1,-1,14,16,18,20,-1,-1,-1,-1,-1,-1,-1,-1],"split_conditions":[7.532E0,7.364E0,7.792E0,-6.38889E-2,2.8166002E-1,1.4197004E-1,7.974E0,-5.814139E-2,-2.7248368E-2,8.824955E-2,7.734E0,2.1633221E-1,8.31E0,4.3922164E-2,5.767584E-3,-4.5100167E-2,-1.446487E-3,4.7478955E-2,1.5893053E-2,5.8341708E-2,6.3544884E-2],"split_indices":[6,6,6,0,4,1,6,0,0,5,6,3,6,0,0,0,0,0,0,0,0],"split_type":[0,0,0,0,0,0,0,0,0,0,0,0,0,0,0,0,0,0,0,0,0],"sum_hessian":[4.0302676E3,1.9564738E3,2.073794E3,1.9369888E3,1.948503E1,6.4677795E1,2.0091161E3,7.4608283E0,1.2024201E1,5.7051167E1,7.626632E0,8.517177E1,1.9239443E3,1.0531921E1,4.6519245E1,5.7057652E0,1.920867E0,7.663216E1,8.539616E0,3.3068674E2,1.5932576E3],"tree_param":{"num_deleted":"0","num_feature":"7","num_nodes":"21","size_leaf_vector":"1"}},{"base_weights":[3.0602433E-3,-1.2546476E0,1.1844447E0,-6.302472E-2,-6.487021E-1,2.1813305E-1,1.2169302E0,4.5787273E-3,-7.267005E-1,8.826325E-1,7.223509E-2,9.778518E-1,1.2368801E0,-5.177865E-2,-2.0589596E-2,-7.4898833E-3,5.3810935E-2,-6.783211E-3,2.7490977E-2,4.978671E-2,-1.5902834E-2,5.8128387E-2,6.277294E-2],"categories":[],"categories_nodes":[],"categories_segments":[],"categories_sizes":[],"default_left":[0,0,0,0,0,0,0,0,0,0,0,1,0,0,0,0,0,0,0,0,0,0,0],"id":20,"left_children":[1,3,5,-1,7,9,11,-1,13,15,17,19,21,-1,-1,-1,-1,-1,-1,-1,-1,-1,-1],"loss_changes":[5.766922E3,5.8425293E0,6.2558838E1,0E0,1.222867E0,6.3650994E0,8.024658E0,0E0,1.3466501E0,2.5294313E0,5.5814376E0,3.8828278E0,1.0026855E0,0E0,0E0,0E0,0E0,0E0,0E0,0E0,0E0,0E0,0E0],"parents":[2147483647,0,0,1,1,2,2,4,4,5,5,6,6,8,8,9,9,10,10,11,11,12,12],"right_children":[2,4,6,-1,8,10,12,-1,14,16,18,20,22,-1,-1,-1,-1,-1,-1,-1,-1,-1,-1],"split_conditions":[7.532E0,7.364E0,7.792E0,-6.302472E-2,8.365052E-2,8.824955E-2,8.058E0,4.5787273E-3,2.9281503E-1,7.3275216E-2,7.734E0,1.2518105E-1,8.392E0,-5.177865E-2,-2.0589596E-2,-7.4898833E-3,5.3810935E-2,-6.783211E-3,2.7490977E-2,4.978671E-2,-1.5902834E-2,5.8128387E-2,6.277294E-2],"split_indices":[6,6,6,0,5,5,6,0,4,5,6,5,6,0,0,0,0,0,0,0,0,0,0],"split_type":[0,0,0,0,0,0,0,0,0,0,0,0,0,0,0,0,0,0,0,0,0,0,0],"sum_hessian":[3.8792627E3,1.878907E3,2.0003558E3,1.8598807E3,1.9026188E1,6.531167E1,1.9350442E3,1.7969947E0,1.7229193E1,1.0849127E1,5.4462543E1,1.528859E2,1.7821583E3,7.5426393E0,9.686553E0,1.7487774E0,9.100349E0,3.8443485E1,1.601906E1,1.510334E2,1.8524911E0,3.691557E2,1.4130026E3],"tree_param":{"num_deleted":"0","num_feature":"7","num_nodes":"23","size_leaf_vector":"1"}},{"base_weights":[-1.9153705E-4,-1.237127E0,1.1658694E0,-6.222952E-2,-5.552652E-1,4.4849667E-1,1.2105604E0,-9.9590225E-3,-4.319053E-2,1.3541088E-1,6.519365E-1,1.0990721E0,6.1820775E-2,1.7808376E-2,-2.8360782E-2,3.5121318E-2,-3.1847652E-2,5.5179913E-2,-6.994409E-3],"categories":[],"categories_nodes":[],"categories_segments":[],"categories_sizes":[],"default_left":[0,0,0,0,1,0,0,0,0,1,1,1,0,0,0,0,0,0,0],"id":21,"left_children":[1,3,5,-1,7,9,11,-1,-1,13,15,17,-1,-1,-1,-1,-1,-1,-1],"loss_changes":[5.4163135E3,8.582031E0,6.1428955E1,0E0,2.1939573E0,7.233263E0,3.8845215E0,0E0,0E0,7.420196E0,4.964491E0,2.125183E0,0E0,0E0,0E0,0E0,0E0,0E0,0E0],"parents":[2147483647,0,0,1,1,2,2,4,4,5,5,6,6,9,9,10,10,11,11],"right_children":[2,4,6,-1,8,10,12,-1,-1,14,16,18,-1,-1,-1,-1,-1,-1,-1],"split_conditions":[7.532E0,7.364E0,7.918E0,-6.222952E-2,8.744149E-2,7.734E0,8.31E0,-9.9590225E-3,-4.319053E-2,9.335183E-2,1.1810922E-1,1.3242859E-1,6.1820775E-2,1.7808376E-2,-2.8360782E-2,3.5121318E-2,-3.1847652E-2,5.5179913E-2,-6.994409E-3],"split_indices":[6,6,6,0,1,6,6,0,0,5,5,5,0,0,0,0,0,0,0],"split_type":[0,0,0,0,0,0,0,0,0,0,0,0,0,0,0,0,0,0,0],"sum_hessian":[3.7532212E3,1.8212318E3,1.9319894E3,1.8006969E3,2.0534983E1,1.1394849E2,1.8180409E3,1.0297006E1,1.0237977E1,4.553599E1,6.841249E1,3.5043814E2,1.4676028E3,3.5024742E1,1.0511252E1,6.627145E1,2.1410494E0,3.4927142E2,1.1666986E0],"tree_param":{"num_deleted":"0","num_feature":"7","num_nodes":"19","size_leaf_vector":"1"}},{"base_weights":[-7.153604E-3,-1.2081224E0,1.1621495E0,-1.2241546E0,-6.938326E-2,6.623804E-1,1.1973668E0,-6.1485518E-2,-6.9492507E-1,5.5347156E-2,-2.836541E-1,7.2770697E-1,1.24298245E-1,5.479482E-2,6.0898777E-2,-5.0451297E-2,-2.1181976E-2,-4.524317E-2,-8.732045E-3,2.0814942E-2,4.356089E-2,4.722722E-2,-1.450637E-2],"categories":[],"categories_nodes":[],"categories_segments":[],"categories_sizes":[],"default_left":[0,0,0,0,0,1,0,0,0,0,0,0,0,0,0,0,0,0,0,0,0,0,0],"id":22,"left_children":[1,3,5,7,9,11,13,-1,15,-1,17,19,21,-1,-1,-1,-1,-1,-1,-1,-1,-1,-1],"loss_changes":[5.088211E3,3.254785E1,3.1519287E1,4.3276367E0,6.8361025E0,4.2362976E0,2.2485352E0,0E0,1.3287907E0,0E0,1.3781966E0,4.533516E0,5.2139325E0,0E0,0E0,0E0,0E0,0E0,0E0,0E0,0E0,0E0,0E0],"parents":[2147483647,0,0,1,1,2,2,3,3,4,4,5,5,6,6,8,8,10,10,11,11,12,12],"right_children":[2,4,6,8,10,12,14,-1,16,-1,18,20,22,-1,-1,-1,-1,-1,-1,-1,-1,-1,-1],"split_conditions":[7.658E0,7.532E0,7.974E0,7.364E0,8.6466424E-2,2.1212643E-1,8.31E0,-6.1485518E-2,2.7998E-1,5.5347156E-2,2.2982001E-1,7.792E0,9.348671E-2,5.479482E-2,6.0898777E-2,-5.0451297E-2,-2.1181976E-2,-4.524317E-2,-8.732045E-3,2.0814942E-2,4.356089E-2,4.722722E-2,-1.450637E-2],"split_indices":[6,6,6,6,5,3,6,0,4,0,4,6,5,0,0,0,0,0,0,0,0,0,0],"split_type":[0,0,0,0,0,0,0,0,0,0,0,0,0,0,0,0,0,0,0,0,0,0,0],"sum_hessian":[3.621317E3,1.7864526E3,1.8348643E3,1.7615765E3,2.4876017E1,1.2209017E2,1.7127742E3,1.741966E3,1.9610655E1,3.1910982E0,2.1684917E1,1.0855812E2,1.353205E1,2.9828494E2,1.4144893E3,7.8279023E0,1.1782753E1,2.1474173E0,1.95375E1,3.547682E1,7.30813E1,4.112761E0,9.419289E0],"tree_param":{"num_deleted":"0","num_feature":"7","num_nodes":"23","size_leaf_vector":"1"}},{"base_weights":[-1.4044788E-3,-1.2124064E0,1.1309274E0,-6.0805816E-2,-8.1456393E-1,1.6644381E-1,1.1669152E0,-6.1744966E-2,-1.9309008E-2,2.9761937E-1,-5.634019E-1,8.067573E-1,1.184285E0,1.0421727E-2,3.379189E-2,-4.0842015E-2,-4.484603E-3,4.2524576E-2,3.2813046E-3,5.5472028E-2,6.052224E-2],"categories":[],"categories_nodes":[],"categories_segments":[],"categories_sizes":[],"default_left":[0,0,0,0,0,1,0,0,0,1,0,1,0,0,0,0,0,0,0,0,0],"id":23,"left_children":[1,3,5,-1,7,9,11,-1,-1,13,15,17,19,-1,-1,-1,-1,-1,-1,-1,-1],"loss_changes":[4.7972656E3,1.5043945E0,6.2558838E1,0E0,2.8808079E0,6.505496E0,9.9470215E0,0E0,0E0,1.7740111E0,1.1790543E0,2.644806E0,1.907959E0,0E0,0E0,0E0,0E0,0E0,0E0,0E0,0E0],"parents":[2147483647,0,0,1,1,2,2,4,4,5,5,6,6,9,9,10,10,11,11,12,12],"right_children":[2,4,6,-1,8,10,12,-1,-1,14,16,18,20,-1,-1,-1,-1,-1,-1,-1,-1],"split_conditions":[7.532E0,7.364E0,7.792E0,-6.0805816E-2,6.4503E-1,1.3511762E-1,7.974E0,-6.1744966E-2,-1.9309008E-2,5.83055E-1,2.5026998E-1,1.6898039E-1,8.438E0,1.0421727E-2,3.379189E-2,-4.0842015E-2,-4.484603E-3,4.2524576E-2,3.2813046E-3,5.5472028E-2,6.052224E-2],"split_indices":[6,6,6,0,2,1,6,0,0,2,4,1,6,0,0,0,0,0,0,0,0],"split_type":[0,0,0,0,0,0,0,0,0,0,0,0,0,0,0,0,0,0,0,0,0],"sum_hessian":[3.4964465E3,1.689498E3,1.8069484E3,1.6718508E3,1.7647188E1,6.519964E1,1.7417488E3,7.956995E0,9.690194E0,5.5768543E1,9.431095E0,8.231971E1,1.6594291E3,4.6382526E1,9.386019E0,5.67212E0,3.7589753E0,7.759336E1,4.7263556E0,4.410305E2,1.2183986E3],"tree_param":{"num_deleted":"0","num_feature":"7","num_nodes":"21","size_leaf_vector":"1"}},{"base_weights":[-3.4054096E-3,-1.1805116E0,1.1342939E0,-6.0159147E-2,-3.361545E-1,6.385971E-1,1.1701185E0,-8.288233E-1,-1.7785056E-1,1.5218751E-1,7.3250324E-1,1.091689E0,5.990268E-2,9.971007E-3,-4.821394E-2,3.433809E-2,-1.4124311E-2,-3.5483684E-2,1.6698232E-2,5.1472783E-3,3.9397553E-2,5.7709045E-3,5.4878037E-2],"categories":[],"categories_nodes":[],"categories_segments":[],"categories_sizes":[],"default_left":[0,0,0,0,0,0,0,0,0,0,0,0,0,0,0,0,0,0,0,0,0,0,0],"id":24,"left_children":[1,3,5,-1,7,9,11,13,15,17,19,21,-1,-1,-1,-1,-1,-1,-1,-1,-1,-1,-1],"loss_changes":[4.508104E3,3.1266846E1,2.9651367E1,0E0,3.334889E0,5.259041E0,2.1867676E0,1.6665506E0,3.366304E0,3.4155173E0,3.349884E0,2.3395386E0,0E0,0E0,0E0,0E0,0E0,0E0,0E0,0E0,0E0,0E0,0E0],"parents":[2147483647,0,0,1,1,2,2,4,4,5,5,6,6,7,7,8,8,9,9,10,10,11,11],"right_children":[2,4,6,-1,8,10,12,14,16,18,20,22,-1,-1,-1,-1,-1,-1,-1,-1,-1,-1,-1],"split_conditions":[7.658E0,7.364E0,7.974E0,-6.0159147E-2,5.33615E-1,7.734E0,8.438E0,3.50755E-1,5.7530004E-1,5.2053005E-1,4.6327E-1,3.8055998E-1,5.990268E-2,9.971007E-3,-4.821394E-2,3.433809E-2,-1.4124311E-2,-3.5483684E-2,1.6698232E-2,5.1472783E-3,3.9397553E-2,5.7709045E-3,5.4878037E-2],"split_indices":[6,6,6,0,2,6,6,0,2,2,2,2,0,0,0,0,0,0,0,0,0,0,0],"split_type":[0,0,0,0,0,0,0,0,0,0,0,0,0,0,0,0,0,0,0,0,0,0,0],"sum_hessian":[3.3642844E3,1.6534872E3,1.7107972E3,1.6098375E3,4.364972E1,1.165765E2,1.5942207E3,9.584737E0,3.4064983E1,1.9288374E1,9.728813E1,4.2922513E2,1.1649956E3,1.0607035E0,8.524034E0,3.0769062E0,3.0988077E1,2.8537555E0,1.6434618E1,8.106224E0,8.918191E1,2.6896186E0,4.265355E2],"tree_param":{"num_deleted":"0","num_feature":"7","num_nodes":"23","size_leaf_vector":"1"}},{"base_weights":[-1.9367806E-3,-1.1679709E0,1.1168311E0,-5.9572335E-2,-3.0358735E-1,5.691559E-1,1.1571809E0,6.319301E-1,-4.576364E-1,6.587008E-1,-3.537257E-2,5.164597E-2,5.8786362E-2,-6.791697E-3,5.501774E-2,-4.895774E-2,-1.6336666E-2,2.8971478E-2,4.3250293E-2,1.1630892E-2,-5.897075E-2],"categories":[],"categories_nodes":[],"categories_segments":[],"categories_sizes":[],"default_left":[0,0,0,0,0,1,0,0,0,0,0,0,0,0,0,0,0,0,0,0,0],"id":25,"left_children":[1,3,5,-1,7,9,11,13,15,17,19,-1,-1,-1,-1,-1,-1,-1,-1,-1,-1],"loss_changes":[4.208323E3,3.1691895E1,3.572339E1,0E0,6.501745E0,6.24522E0,2.3171387E0,2.492477E0,2.2465062E0,1.1368256E0,5.11168E0,0E0,0E0,0E0,0E0,0E0,0E0,0E0,0E0,0E0,0E0],"parents":[2147483647,0,0,1,1,2,2,4,4,5,5,6,6,7,7,8,8,9,9,10,10],"right_children":[2,4,6,-1,8,10,12,14,16,18,20,-1,-1,-1,-1,-1,-1,-1,-1,-1,-1],"split_conditions":[7.658E0,7.364E0,7.974E0,-5.9572335E-2,8.5799746E-2,1.0337959E-1,8.252E0,7.532E0,4.25335E-1,7.918E0,4.8434E-1,5.164597E-2,5.8786362E-2,-6.791697E-3,5.501774E-2,-4.895774E-2,-1.6336666E-2,2.8971478E-2,4.3250293E-2,1.1630892E-2,-5.897075E-2],"split_indices":[6,6,6,0,5,5,6,6,0,6,0,0,0,0,0,0,0,0,0,0,0],"split_type":[0,0,0,0,0,0,0,0,0,0,0,0,0,0,0,0,0,0,0,0,0],"sum_hessian":[3.223952E3,1.5786072E3,1.6453448E3,1.536499E3,4.210812E1,1.139388E2,1.531406E3,5.514886E0,3.6593235E1,9.916109E1,1.4777716E1,2.062454E2,1.3251606E3,2.3587816E0,3.156104E0,6.041978E0,3.0551258E1,7.4387E1,2.4774088E1,1.2618515E1,2.1592002E0],"tree_param":{"num_deleted":"0","num_feature":"7","num_nodes":"21","size_leaf_vector":"1"}},{"base_weights":[3.65934E-5,-8.423856E-1,1.1301858E-1,-1.0625757E0,-5.948635E-1,-2.8768446E-2,6.1324906E-1,-5.6523174E-2,-9.0364903E-1,-3.834611E-2,-3.5521677E-1,-5.6463126E-2,2.0908071E-1,4.413052E-1,7.33477E-1,-2.2495558E-2,-4.831314E-2,4.455379E-3,-2.4741095E-2,-2.0323968E-2,-2.2781559E-3,2.042826E-2,3.7230328E-3,9.438088E-3,2.711745E-2,3.688954E-2,-4.2672097E-3],"categories":[],"categories_nodes":[],"categories_segments":[],"categories_sizes":[],"default_left":[0,0,1,0,0,1,0,0,0,0,0,0,0,0,0,0,0,0,0,0,0,0,0,0,0,0,0],"id":26,"left_children":[1,3,5,7,9,11,13,-1,15,-1,17,19,21,23,25,-1,-1,-1,-1,-1,-1,-1,-1,-1,-1,-1,-1],"loss_changes":[2.957774E2,1.9396942E1,1.9436346E2,1.063034E0,6.9549637E0,1.4081482E1,1.2187042E1,0E0,1.3498383E0,0E0,4.703496E0,7.2835374E0,5.957548E0,6.3165092E0,1.3156586E0,0E0,0E0,0E0,0E0,0E0,0E0,0E0,0E0,0E0,0E0,0E0,0E0],"parents":[2147483647,0,0,1,1,2,2,3,3,4,4,5,5,6,6,8,8,10,10,11,11,12,12,13,13,14,14],"right_children":[2,4,6,8,10,12,14,-1,16,-1,18,20,22,24,26,-1,-1,-1,-1,-1,-1,-1,-1,-1,-1,-1,-1],"split_conditions":[4.3521005E-1,3.6550504E-1,5.2803E-1,3.27025E-1,2.5594E-1,4.2632002E-1,5.8427507E-1,-5.6523174E-2,1.3858941E-1,-3.834611E-2,1.2924446E-1,4.7459498E-1,1.7596619E-1,4.1194502E-1,3.0495E-1,-2.2495558E-2,-4.831314E-2,4.455379E-3,-2.4741095E-2,-2.0323968E-2,-2.2781559E-3,2.042826E-2,3.7230328E-3,9.438088E-3,2.711745E-2,3.688954E-2,-4.2672097E-3],"split_indices":[2,2,2,2,4,0,2,0,1,0,1,2,3,0,4,0,0,0,0,0,0,0,0,0,0,0,0],"split_type":[0,0,0,0,0,0,0,0,0,0,0,0,0,0,0,0,0,0,0,0,0,0,0,0,0,0,0],"sum_hessian":[3.105606E3,3.6649213E2,2.7391138E3,1.922119E2,1.7428023E2,2.1349255E3,6.041881E2,1.3039763E2,6.1814274E1,1.0016483E2,7.4115395E1,1.9129484E3,2.2197728E2,2.5054376E2,3.5364435E2,8.488308E0,5.3325966E1,1.7805891E1,5.63095E1,5.6676804E1,1.8562715E3,8.86209E1,1.3335638E2,7.241694E1,1.7812683E2,3.5188943E2,1.7548985E0],"tree_param":{"num_deleted":"0","num_feature":"7","num_nodes":"27","size_leaf_vector":"1"}},{"base_weights":[3.8746935E-3,-1.155139E0,1.1010898E0,-5.8962096E-2,-3.2916158E-1,4.7355098E-1,1.1360686E0,3.4771156E-2,-3.8641477E-1,5.300751E-1,-4.6901855E-1,9.837778E-1,5.8136024E-2,-3.1693038E-2,-9.131392E-3,1.5027389E-2,3.6032934E-2,-6.2290527E-2,3.1896673E-2,-1.9317372E-3,4.9493067E-2],"categories":[],"categories_nodes":[],"categories_segments":[],"categories_sizes":[],"default_left":[0,0,0,0,0,1,0,0,0,0,0,0,0,0,0,0,0,0,0,0,0],"id":27,"left_children":[1,3,5,-1,7,9,11,-1,13,15,17,19,-1,-1,-1,-1,-1,-1,-1,-1,-1],"loss_changes":[3.9384355E3,2.9595825E1,3.4383545E1,0E0,2.8551135E0,4.8150654E0,4.9694824E0,0E0,2.0223174E0,3.341135E0,5.4205384E0,1.473999E0,0E0,0E0,0E0,0E0,0E0,0E0,0E0,0E0,0E0],"parents":[2147483647,0,0,1,1,2,2,4,4,5,5,6,6,8,8,9,9,10,10,11,11],"right_children":[2,4,6,-1,8,10,12,-1,14,16,18,20,-1,-1,-1,-1,-1,-1,-1,-1,-1],"split_conditions":[7.658E0,7.364E0,7.918E0,-5.8962096E-2,8.5357115E-2,1.66982E-1,8.252E0,3.4771156E-2,7.532E0,7.792E0,7.842E0,3.8055998E-1,5.8136024E-2,-3.1693038E-2,-9.131392E-3,1.5027389E-2,3.6032934E-2,-6.2290527E-2,3.1896673E-2,-1.9317372E-3,4.9493067E-2],"split_indices":[6,6,6,0,1,1,6,0,6,6,6,2,0,0,0,0,0,0,0,0,0],"split_type":[0,0,0,0,0,0,0,0,0,0,0,0,0,0,0,0,0,0,0,0,0],"sum_hessian":[3.0950154E3,1.5050955E3,1.5899198E3,1.4620049E3,4.3090683E1,8.471003E1,1.5052097E3,1.690557E0,4.1400127E1,8.03304E1,4.379636E0,2.2983353E2,1.2753762E3,1.7744122E1,2.3656006E1,3.7610985E1,4.271941E1,2.4999087E0,1.879727E0,1.3278071E0,2.2850572E2],"tree_param":{"num_deleted":"0","num_feature":"7","num_nodes":"21","size_leaf_vector":"1"}},{"base_weights":[3.7071526E-3,-7.748199E-1,1.1371672E-1,-1.0060304E0,-4.9088445E-1,5.458938E-1,-3.718799E-2,-5.3966135E-2,-3.883953E-2,-7.23857E-1,-2.1184275E-1,3.0640104E-1,6.696246E-1,-4.693665E-2,1.975104E-2,-4.5861803E-2,-3.0966748E-2,5.4580267E-3,-2.3290671E-2,-1.4010124E-2,1.8653344E-2,-6.681764E-3,3.3924293E-2,-1.7852632E-2,-1.9407537E-3],"categories":[],"categories_nodes":[],"categories_segments":[],"categories_sizes":[],"default_left":[0,0,0,0,0,0,1,0,0,0,0,0,0,0,0,0,0,0,0,0,0,0,0,0,0],"id":28,"left_children":[1,3,5,7,9,11,13,-1,-1,15,17,19,21,23,-1,-1,-1,-1,-1,-1,-1,-1,-1,-1,-1],"loss_changes":[2.5352704E2,2.3566559E1,1.6917267E2,2.5396118E0,1.066729E1,1.9687714E1,8.122473E0,0E0,0E0,1.2570686E0,6.3405027E0,9.119564E0,3.2353058E0,4.725734E0,0E0,0E0,0E0,0E0,0E0,0E0,0E0,0E0,0E0,0E0,0E0],"parents":[2147483647,0,0,1,1,2,2,3,3,4,4,5,5,6,6,9,9,10,10,11,11,12,12,13,13],"right_children":[2,4,6,8,10,12,14,-1,-1,16,18,20,22,24,-1,-1,-1,-1,-1,-1,-1,-1,-1,-1,-1],"split_conditions":[4.44035E-1,3.7830502E-1,1.0337959E-1,3.4803003E-1,2.5594E-1,5.4356E-1,5.6506E-1,-5.3966135E-2,-3.883953E-2,2.2496001E-1,1.4155559E-1,2.1250501E-1,3.4110004E-1,4.0540498E-1,1.975104E-2,-4.5861803E-2,-3.0966748E-2,5.4580267E-3,-2.3290671E-2,-1.4010124E-2,1.8653344E-2,-6.681764E-3,3.3924293E-2,-1.7852632E-2,-1.9407537E-3],"split_indices":[2,2,5,2,4,2,2,0,0,4,1,4,0,0,0,0,0,0,0,0,0,0,0,0,0],"split_type":[0,0,0,0,0,0,0,0,0,0,0,0,0,0,0,0,0,0,0,0,0,0,0,0,0],"sum_hessian":[2.9581646E3,3.6550165E2,2.5926628E3,2.0005356E2,1.654481E2,6.7031775E2,1.9223451E3,1.4877814E2,5.1275414E1,8.929849E1,7.6149605E1,2.2952559E2,4.4079218E2,1.880814E3,4.1531197E1,2.8603283E1,6.0695213E1,3.3887756E1,4.226185E1,2.3096104E1,2.0642949E2,4.655954E0,4.3613623E2,4.6902832E1,1.8339111E3],"tree_param":{"num_deleted":"0","num_feature":"7","num_nodes":"25","size_leaf_vector":"1"}},{"base_weights":[-1.8701238E-3,-7.940199E-1,9.703417E-2,-5.303924E-2,-5.7736754E-1,-2.0289797E-2,5.911462E-1,-3.1700543E-1,-3.7914447E-2,2.2912069E-1,-5.418305E-2,6.518486E-1,2.763463E-1,-1.3346072E-4,-2.8347334E-2,-4.0321685E-3,1.8048937E-2,-2.2039047E-2,-2.1199014E-3,3.0861361E-2,4.423597E-2,3.0126239E-3,2.1063866E-2],"categories":[],"categories_nodes":[],"categories_segments":[],"categories_sizes":[],"default_left":[0,0,1,0,0,0,0,0,0,0,0,0,0,0,0,0,0,0,0,0,0,0,0],"id":29,"left_children":[1,3,5,-1,7,9,11,13,-1,15,17,19,21,-1,-1,-1,-1,-1,-1,-1,-1,-1,-1],"loss_changes":[2.3229674E2,1.8408112E1,1.5281744E2,0E0,8.417702E0,1.8027079E1,9.485519E0,6.053995E0,0E0,1.0450421E1,8.5327215E0,2.8667908E0,2.5898561E0,0E0,0E0,0E0,0E0,0E0,0E0,0E0,0E0,0E0,0E0],"parents":[2147483647,0,0,1,1,2,2,4,4,5,5,6,6,7,7,9,9,10,10,11,11,12,12],"right_children":[2,4,6,-1,8,10,12,14,-1,16,18,20,22,-1,-1,-1,-1,-1,-1,-1,-1,-1,-1],"split_conditions":[4.33495E-1,3.4803003E-1,5.4254496E-1,-5.303924E-2,1.1211716E-1,1.0447976E-1,1.0189012E-1,1.8363193E-1,-3.7914447E-2,4.1194502E-1,4.11395E-1,6.77925E-1,1.8363193E-1,-1.3346072E-4,-2.8347334E-2,-4.0321685E-3,1.8048937E-2,-2.2039047E-2,-2.1199014E-3,3.0861361E-2,4.423597E-2,3.0126239E-3,2.1063866E-2],"split_indices":[2,2,2,0,5,5,5,3,0,0,0,2,3,0,0,0,0,0,0,0,0,0,0],"split_type":[0,0,0,0,0,0,0,0,0,0,0,0,0,0,0,0,0,0,0,0,0,0,0],"sum_hessian":[2.9629893E3,3.2810272E2,2.6348865E3,1.4529907E2,1.8280363E2,2.1300723E3,5.0481412E2,7.6075836E1,1.067278E2,2.5414368E2,1.8759287E3,4.2231003E2,8.250411E1,3.414473E1,4.193111E1,7.599733E1,1.7814635E2,5.441718E1,1.8215115E3,3.7082867E2,5.148135E1,3.3689064E1,4.8815052E1],"tree_param":{"num_deleted":"0","num_feature":"7","num_nodes":"23","size_leaf_vector":"1"}},{"base_weights":[6.3367547E-3,4.6752387E-1,-1.3123682E-1,-5.3781E-1,4.994536E-1,-5.327421E-2,-8.2582027E-1,-4.5150723E-2,-2.9271904E-1,5.134875E-1,-3.0679718E-1,-6.633638E-1,-4.2423785E-2,-5.826058E-1,-5.0666213E-2,9.497131E-3,-2.181774E-2,3.010715E-2,2.0518394E-2,-1.0638275E-3,-3.4301735E-2,-1.6589327E-2,-3.9707992E-2,-1.4748323E-3,-1.4313954E-2,-3.9386142E-2,-2.319051E-2],"categories":[],"categories_nodes":[],"categories_segments":[],"categories_sizes":[],"default_left":[0,0,1,0,0,0,0,0,0,0,0,0,1,0,0,0,0,0,0,0,0,0,0,0,0,0,0],"id":30,"left_children":[1,3,5,7,9,11,13,-1,15,17,19,21,23,25,-1,-1,-1,-1,-1,-1,-1,-1,-1,-1,-1,-1,-1],"loss_changes":[1.8582828E2,2.1870148E1,1.22119446E2,1.632935E0,7.543289E0,1.340568E1,9.788757E0,0E0,1.0648202E0,5.6217346E0,1.2624174E0,1.271472E0,6.2803965E0,2.1062088E0,0E0,0E0,0E0,0E0,0E0,0E0,0E0,0E0,0E0,0E0,0E0,0E0,0E0],"parents":[2147483647,0,0,1,1,2,2,3,3,4,4,5,5,6,6,8,8,9,9,10,10,11,11,12,12,13,13],"right_children":[2,4,6,8,10,12,14,-1,16,18,20,22,24,26,-1,-1,-1,-1,-1,-1,-1,-1,-1,-1,-1,-1,-1],"split_conditions":[1.0189012E-1,3.4110004E-1,1.187654E-1,3.11235E-1,5.3357494E-1,2.1915498E-1,1.2826034E-1,-4.5150723E-2,1.83285E-1,9.182617E-2,5.57935E-1,1.0598893E-1,1.1192614E-1,1.9282046E-1,-5.0666213E-2,9.497131E-3,-2.181774E-2,3.010715E-2,2.0518394E-2,-1.0638275E-3,-3.4301735E-2,-1.6589327E-2,-3.9707992E-2,-1.4748323E-3,-1.4313954E-2,-3.9386142E-2,-2.319051E-2],"split_indices":[5,0,5,0,0,4,5,0,4,5,0,5,5,3,0,0,0,0,0,0,0,0,0,0,0,0,0],"split_type":[0,0,0,0,0,0,0,0,0,0,0,0,0,0,0,0,0,0,0,0,0,0,0,0,0,0,0],"sum_hessian":[2.9268997E3,6.719447E2,2.2549548E3,2.0196524E1,6.5174817E2,2.0283608E3,2.2659401E2,7.03276E0,1.3163763E1,6.409546E2,1.0793615E1,3.4393112E1,1.9939678E3,1.00430756E2,1.2616325E2,2.9450543E0,1.0218708E1,3.4204645E2,2.989081E2,6.76014E0,4.033476E0,1.07295685E1,2.3663544E1,1.8946504E3,9.931735E1,3.476803E1,6.566273E1],"tree_param":{"num_deleted":"0","num_feature":"7","num_nodes":"27","size_leaf_vector":"1"}},{"base_weights":[5.6284026E-4,-1.1412462E0,1.0866708E0,-5.8375802E-2,-3.118641E-1,4.6682242E-1,1.1224396E0,-5.936008E-1,-7.9306066E-2,5.197837E-1,-4.8876232E-1,9.906954E-1,5.767678E-2,-9.694945E-3,-4.769283E-2,3.4394294E-2,-8.300173E-3,1.333786E-2,3.6237624E-2,-5.35701E-2,3.7316065E-2,5.038748E-2,2.9888589E-2],"categories":[],"categories_nodes":[],"categories_segments":[],"categories_sizes":[],"default_left":[0,0,0,0,0,1,0,1,0,0,0,1,0,0,0,0,0,0,0,0,0,0,0],"id":31,"left_children":[1,3,5,-1,7,9,11,13,15,17,19,21,-1,-1,-1,-1,-1,-1,-1,-1,-1,-1,-1],"loss_changes":[3.6265767E3,3.0697021E1,3.2704956E1,0E0,2.9100604E0,4.478842E0,4.6590576E0,2.731596E0,1.8354771E0,3.9338932E0,4.3250275E0,1.2573242E0,0E0,0E0,0E0,0E0,0E0,0E0,0E0,0E0,0E0,0E0,0E0],"parents":[2147483647,0,0,1,1,2,2,4,4,5,5,6,6,7,7,8,8,9,9,10,10,11,11],"right_children":[2,4,6,-1,8,10,12,14,16,18,20,22,-1,-1,-1,-1,-1,-1,-1,-1,-1,-1,-1],"split_conditions":[7.658E0,7.364E0,7.918E0,-5.8375802E-2,7.532E0,1.614461E-1,8.31E0,8.744149E-2,1.4047799E-1,7.792E0,7.842E0,4.8527497E-1,5.767678E-2,-9.694945E-3,-4.769283E-2,3.4394294E-2,-8.300173E-3,1.333786E-2,3.6237624E-2,-5.35701E-2,3.7316065E-2,5.038748E-2,2.9888589E-2],"split_indices":[6,6,6,0,6,1,6,1,3,6,6,0,0,0,0,0,0,0,0,0,0,0,0],"split_type":[0,0,0,0,0,0,0,0,0,0,0,0,0,0,0,0,0,0,0,0,0,0,0],"sum_hessian":[2.9223572E3,1.4246223E3,1.4977347E3,1.380489E3,4.4133247E1,8.247912E1,1.4152556E3,1.925452E1,2.4878725E1,7.858005E1,3.8990755E0,2.7653238E2,1.1387233E3,9.856742E0,9.3977785E0,1.8219361E0,2.305679E1,3.6197285E1,4.238276E1,2.7393422E0,1.1597333E0,2.635296E2,1.3002782E1],"tree_param":{"num_deleted":"0","num_feature":"7","num_nodes":"23","size_leaf_vector":"1"}},{"base_weights":[-2.3370187E-3,-1.1499254E0,1.0532858E0,-5.7895727E-2,-5.4071546E-1,1.1586387E-1,1.0937295E0,-5.3337723E-2,-3.2856667E-1,-4.2414904E-2,1.7837963E-1,8.374042E-1,1.1238501E0,3.367273E-2,-2.2894843E-2,3.345746E-2,3.8017065E-3,4.2370223E-2,-6.157126E-3,5.1560905E-2,5.745172E-2],"categories":[],"categories_nodes":[],"categories_segments":[],"categories_sizes":[],"default_left":[0,0,0,0,0,0,0,0,0,0,0,1,0,0,0,0,0,0,0,0,0],"id":32,"left_children":[1,3,5,-1,7,9,11,-1,13,-1,15,17,19,-1,-1,-1,-1,-1,-1,-1,-1],"loss_changes":[3.4012815E3,5.921509E0,5.531848E1,0E0,1.8021436E0,3.8645015E0,9.881958E0,0E0,2.2769637E0,0E0,2.8964453E0,1.5579834E0,1.7344971E0,0E0,0E0,0E0,0E0,0E0,0E0,0E0,0E0],"parents":[2147483647,0,0,1,1,2,2,4,4,5,5,6,6,8,8,10,10,11,11,12,12],"right_children":[2,4,6,-1,8,10,12,-1,14,-1,16,18,20,-1,-1,-1,-1,-1,-1,-1,-1],"split_conditions":[7.532E0,7.364E0,7.792E0,-5.7895727E-2,4.2982998E-1,1.3021931E-1,8.12E0,-5.3337723E-2,4.4678497E-1,-4.2414904E-2,1.7423233E-1,2.9996997E-1,8.438E0,3.367273E-2,-2.2894843E-2,3.345746E-2,3.8017065E-3,4.2370223E-2,-6.157126E-3,5.1560905E-2,5.745172E-2],"split_indices":[6,6,6,0,0,3,6,0,0,0,3,4,6,0,0,0,0,0,0,0,0],"split_type":[0,0,0,0,0,0,0,0,0,0,0,0,0,0,0,0,0,0,0,0,0],"sum_hessian":[2.8056807E3,1.3442407E3,1.46144E3,1.3259515E3,1.828917E1,6.0603706E1,1.4008362E3,4.0984406E0,1.4190727E1,2.9248748E0,5.767883E1,1.503305E2,1.2505057E3,1.1412591E0,1.3049469E1,8.997183E0,4.868165E1,1.4889813E2,1.4323766E0,2.7627313E2,9.742326E2],"tree_param":{"num_deleted":"0","num_feature":"7","num_nodes":"21","size_leaf_vector":"1"}},{"base_weights":[-1.4178274E-3,-7.598881E-1,8.713437E-2,-9.521299E-1,-4.5892394E-1,-3.700789E-2,4.7670662E-1,-5.356477E-2,-7.8710145E-1,-1.2790039E-1,-6.376445E-1,2.2142388E-1,-5.3351253E-2,3.6920747E-1,6.32491E-1,-2.4004593E-2,-4.3163773E-2,5.5341455E-3,-3.1069323E-2,-3.6471702E-2,-2.1356164E-2,-2.0398617E-2,1.6062466E-2,-2.1969272E-2,-2.123378E-3,1.0151147E-2,2.189234E-2,6.3620866E-3,3.2101113E-2],"categories":[],"categories_nodes":[],"categories_segments":[],"categories_sizes":[],"default_left":[0,0,1,0,0,0,0,0,0,0,0,0,0,0,0,0,0,0,0,0,0,0,0,0,0,0,0,0,0],"id":33,"left_children":[1,3,5,7,9,11,13,-1,15,17,19,21,23,25,27,-1,-1,-1,-1,-1,-1,-1,-1,-1,-1,-1,-1,-1,-1],"loss_changes":[1.8118736E2,1.5880661E1,1.168448E2,2.5229492E0,6.536154E0,7.753037E0,9.543732E0,0E0,1.3521996E0,4.833603E0,1.0872784E0,6.9926457E0,7.227296E0,3.879013E0,1.0595093E0,0E0,0E0,0E0,0E0,0E0,0E0,0E0,0E0,0E0,0E0,0E0,0E0,0E0,0E0],"parents":[2147483647,0,0,1,1,2,2,3,3,4,4,5,5,6,6,8,8,9,9,10,10,11,11,12,12,13,13,14,14],"right_children":[2,4,6,8,10,12,14,-1,16,18,20,22,24,26,28,-1,-1,-1,-1,-1,-1,-1,-1,-1,-1,-1,-1,-1,-1],"split_conditions":[4.3202996E-1,3.8055998E-1,5.115699E-1,3.27025E-1,1.8363193E-1,1.0102614E-1,6.00705E-1,-5.356477E-2,1.4641014E-1,1.1292347E-1,4.1804504E-1,3.7249E-1,4.1357002E-1,4.12565E-1,3.5424E-1,-2.4004593E-2,-4.3163773E-2,5.5341455E-3,-3.1069323E-2,-3.6471702E-2,-2.1356164E-2,-2.0398617E-2,1.6062466E-2,-2.1969272E-2,-2.123378E-3,1.0151147E-2,2.189234E-2,6.3620866E-3,3.2101113E-2],"split_indices":[2,2,2,2,3,5,2,0,1,5,2,0,0,0,0,0,0,0,0,0,0,0,0,0,0,0,0,0,0],"split_type":[0,0,0,0,0,0,0,0,0,0,0,0,0,0,0,0,0,0,0,0,0,0,0,0,0,0,0,0,0],"sum_hessian":[2.6956914E3,2.810292E2,2.414662E3,1.701694E2,1.108598E2,1.8318306E3,5.828316E2,9.562669E1,7.45427E1,3.94699E1,7.138991E1,1.08209175E2,1.7236213E3,3.4685437E2,2.3597722E2,1.6270214E1,5.827249E1,2.7129463E1,1.2340436E1,4.799756E1,2.3392345E1,1.4390524E1,9.381865E1,4.618301E1,1.6774384E3,1.0254287E2,2.443115E2,4.634853E0,2.3134238E2],"tree_param":{"num_deleted":"0","num_feature":"7","num_nodes":"29","size_leaf_vector":"1"}},{"base_weights":[-9.980045E-3,-7.5285584E-1,7.247889E-2,-9.895813E-1,-4.8884875E-1,-3.0156033E-2,5.172475E-1,-5.3442955E-2,-8.1785625E-1,-3.27893E-1,-3.7116546E-2,1.608824E-1,-5.7998084E-2,5.701377E-1,2.0413749E-1,-1.801143E-2,-4.431122E-2,2.3156396E-4,-2.1733068E-2,-4.1723563E-3,1.3499997E-2,-2.262714E-3,-1.3731665E-2,-8.2478365E-3,2.8958175E-2,-2.7238626E-2,1.3397482E-2],"categories":[],"categories_nodes":[],"categories_segments":[],"categories_sizes":[],"default_left":[0,0,1,0,0,0,0,0,0,0,0,0,1,0,0,0,0,0,0,0,0,0,0,0,0,0,0],"id":34,"left_children":[1,3,5,7,9,11,13,-1,15,17,-1,19,21,23,25,-1,-1,-1,-1,-1,-1,-1,-1,-1,-1,-1,-1],"loss_changes":[1.6454663E2,1.6288895E1,1.1039049E2,1.0388947E0,5.013695E0,1.0463713E1,7.3921204E0,0E0,1.20261E0,2.863597E0,0E0,6.695222E0,4.7256722E0,2.6653366E0,3.3515973E0,0E0,0E0,0E0,0E0,0E0,0E0,0E0,0E0,0E0,0E0,0E0,0E0],"parents":[2147483647,0,0,1,1,2,2,3,3,4,4,5,5,6,6,8,8,9,9,11,11,12,12,13,13,14,14],"right_children":[2,4,6,8,10,12,14,-1,16,18,-1,20,22,24,26,-1,-1,-1,-1,-1,-1,-1,-1,-1,-1,-1,-1],"split_conditions":[4.28795E-1,3.6550504E-1,5.4254496E-1,3.27025E-1,1.1850583E-1,1.0578001E-1,1.0318599E-1,-5.3442955E-2,1.3829978E-1,1.2924446E-1,-3.7116546E-2,4.12565E-1,1.4433432E-1,3.4110004E-1,3.8894498E-1,-1.801143E-2,-4.431122E-2,2.3156396E-4,-2.1733068E-2,-4.1723563E-3,1.3499997E-2,-2.262714E-3,-1.3731665E-2,-8.2478365E-3,2.8958175E-2,-2.7238626E-2,1.3397482E-2],"split_indices":[2,2,2,2,5,5,5,0,1,1,0,0,1,0,0,0,0,0,0,0,0,0,0,0,0,0,0],"split_type":[0,0,0,0,0,0,0,0,0,0,0,0,0,0,0,0,0,0,0,0,0,0,0,0,0,0,0],"sum_hessian":[2.684289E3,2.673742E2,2.4169148E3,1.395218E2,1.27852394E2,1.964515E3,4.523998E2,9.188043E1,4.7641376E1,7.9601006E1,4.825139E1,2.4928258E2,1.7152324E3,3.8632184E2,6.6077965E1,7.0071898E0,4.0634186E1,1.9579218E1,6.0021786E1,7.7032104E1,1.7225047E2,1.6210796E3,9.415292E1,4.4763236E0,3.8184552E2,4.5964246E0,6.1481537E1],"tree_param":{"num_deleted":"0","num_feature":"7","num_nodes":"27","size_leaf_vector":"1"}},{"base_weights":[4.1578105E-3,-1.1388124E0,1.0413502E0,-5.7422366E-2,-4.6975604E-1,3.385914E-1,1.0976514E0,-3.2830477E-1,-4.8187032E-2,4.2929786E-1,-2.4261071E-1,9.704801E-1,5.63999E-2,1.7291438E-2,-2.3906672E-2,6.0482282E-2,1.8580118E-2,3.515723E-2,-2.2097932E-2,-1.2627244E-3,4.878503E-2],"categories":[],"categories_nodes":[],"categories_segments":[],"categories_sizes":[],"default_left":[0,0,0,0,1,1,0,0,0,0,0,0,0,0,0,0,0,0,0,0,0],"id":35,"left_children":[1,3,5,-1,7,9,11,13,-1,15,17,19,-1,-1,-1,-1,-1,-1,-1,-1,-1],"loss_changes":[3.1817297E3,7.691284E0,5.5300537E1,0E0,1.0684166E0,5.682397E0,3.9311523E0,1.8747034E0,0E0,3.6875305E0,3.124309E0,1.3660126E0,0E0,0E0,0E0,0E0,0E0,0E0,0E0,0E0,0E0],"parents":[2147483647,0,0,1,1,2,2,4,4,5,5,6,6,7,7,9,9,10,10,11,11],"right_children":[2,4,6,-1,8,10,12,14,-1,16,18,20,-1,-1,-1,-1,-1,-1,-1,-1,-1],"split_conditions":[7.532E0,7.364E0,7.918E0,-5.7422366E-2,1.7991328E-1,1.4197004E-1,8.31E0,5.7530004E-1,-4.8187032E-2,3.811E-1,1.5169527E-1,3.6830002E-1,5.63999E-2,1.7291438E-2,-2.3906672E-2,6.0482282E-2,1.8580118E-2,3.515723E-2,-2.2097932E-2,-1.2627244E-3,4.878503E-2],"split_indices":[6,6,6,0,3,1,6,2,0,0,3,2,0,0,0,0,0,0,0,0,0],"split_type":[0,0,0,0,0,0,0,0,0,0,0,0,0,0,0,0,0,0,0,0,0],"sum_hessian":[2.6819163E3,1.2758505E3,1.4060658E3,1.257032E3,1.8818565E1,1.04811325E2,1.3012545E3,1.5923513E1,2.8950524E0,9.088806E1,1.39232645E1,2.5704645E2,1.044208E3,2.6576443E0,1.3265869E1,4.882661E0,8.6005394E1,1.9839058E0,1.1939359E1,1.3206149E0,2.5572585E2],"tree_param":{"num_deleted":"0","num_feature":"7","num_nodes":"21","size_leaf_vector":"1"}},{"base_weights":[1.7124473E-3,-7.2514296E-1,8.031344E-2,-4.1830328E-1,-9.377574E-1,-2.8818885E-2,4.6694756E-1,-4.3859493E-2,-2.5069323E-1,-5.222326E-2,-3.8823742E-2,1.9660641E-1,-4.5497146E-2,3.4732714E-1,6.0674864E-1,-2.9635543E-2,-5.3996067E-3,-3.796976E-3,1.6602406E-2,-2.6709495E-2,-1.7699244E-3,2.1045215E-2,6.541397E-3,2.827536E-2,4.1262824E-2],"categories":[],"categories_nodes":[],"categories_segments":[],"categories_sizes":[],"default_left":[0,0,1,0,0,0,0,0,0,0,0,0,0,0,0,0,0,0,0,0,0,0,0,0,0],"id":36,"left_children":[1,3,5,7,9,11,13,-1,15,-1,-1,17,19,21,23,-1,-1,-1,-1,-1,-1,-1,-1,-1,-1],"loss_changes":[1.4714627E2,1.600473E1,9.808188E1,7.8313847E0,1.7302399E0,6.827269E0,8.346161E0,0E0,3.7464905E0,0E0,0E0,4.6439037E0,8.318558E0,4.3746223E0,1.6474304E0,0E0,0E0,0E0,0E0,0E0,0E0,0E0,0E0,0E0,0E0],"parents":[2147483647,0,0,1,1,2,2,3,3,4,4,5,5,6,6,8,8,11,11,12,12,13,13,14,14],"right_children":[2,4,6,8,10,12,14,-1,16,-1,-1,18,20,22,24,-1,-1,-1,-1,-1,-1,-1,-1,-1,-1],"split_conditions":[4.28795E-1,1.1850583E-1,5.1949006E-1,2.2937998E-1,3.4257E-1,1.0102614E-1,5.9566504E-1,-4.3859493E-2,3.7545502E-1,-5.222326E-2,-3.8823742E-2,2.38095E-1,2.3112503E-1,1.0318599E-1,6.8561995E-1,-2.9635543E-2,-5.3996067E-3,-3.796976E-3,1.6602406E-2,-2.6709495E-2,-1.7699244E-3,2.1045215E-2,6.541397E-3,2.827536E-2,4.1262824E-2],"split_indices":[2,5,2,4,2,5,2,0,2,0,0,4,4,5,2,0,0,0,0,0,0,0,0,0,0],"split_type":[0,0,0,0,0,0,0,0,0,0,0,0,0,0,0,0,0,0,0,0,0,0,0,0,0],"sum_hessian":[2.57355E3,2.5033887E2,2.3232112E3,1.0367916E2,1.466597E2,1.812528E3,5.1068323E2,2.6605232E1,7.707393E1,8.496748E1,6.169222E1,1.2411996E2,1.6884081E3,2.7708264E2,2.336006E2,2.1762157E1,5.531177E1,4.1350567E1,8.2769394E1,3.3133213E1,1.6552748E3,2.0609665E2,7.098599E1,1.9952925E2,3.4071346E1],"tree_param":{"num_deleted":"0","num_feature":"7","num_nodes":"25","size_leaf_vector":"1"}},{"base_weights":[-2.7997424E-3,-1.1104082E0,1.0451542E0,-5.701248E-2,-3.0422705E-1,4.9494973E-1,1.0918397E0,-4.010871E-2,-1.419044E-1,5.6725734E-1,-1.3536897E-1,4.7223274E-2,5.5805665E-2,5.052666E-2,-1.1095968E-2,-1.1789474E-2,3.0546824E-2,3.5078865E-2,-2.0349743E-2],"categories":[],"categories_nodes":[],"categories_segments":[],"categories_sizes":[],"default_left":[0,0,0,0,0,1,0,0,0,0,0,0,0,0,0,0,0,0,0],"id":37,"left_children":[1,3,5,-1,7,9,11,-1,13,15,17,-1,-1,-1,-1,-1,-1,-1,-1],"loss_changes":[2.982907E3,2.9710083E1,3.337854E1,0E0,3.6010036E0,4.867424E0,3.2973633E0,0E0,3.5324407E0,3.458311E0,2.9281814E0,0E0,0E0,0E0,0E0,0E0,0E0,0E0,0E0],"parents":[2147483647,0,0,1,1,2,2,4,4,5,5,6,6,8,8,9,9,10,10],"right_children":[2,4,6,-1,8,10,12,-1,14,16,18,-1,-1,-1,-1,-1,-1,-1,-1],"split_conditions":[7.658E0,7.364E0,7.974E0,-5.701248E-2,5.5647504E-1,2.1633221E-1,8.264E0,-4.010871E-2,5.7264507E-1,1.3021931E-1,2.0834002E-1,4.7223274E-2,5.5805665E-2,5.052666E-2,-1.1095968E-2,-1.1789474E-2,3.0546824E-2,3.5078865E-2,-2.0349743E-2],"split_indices":[6,6,6,0,2,3,6,0,2,3,4,0,0,0,0,0,0,0,0],"split_type":[0,0,0,0,0,0,0,0,0,0,0,0,0,0,0,0,0,0,0],"sum_hessian":[2.5678706E3,1.2483738E3,1.3194967E3,1.2034141E3,4.4959698E1,1.041112E2,1.2153855E3,1.0083948E1,3.487575E1,9.348682E1,1.0624378E1,1.7751807E2,1.0378674E3,1.5092374E0,3.3366512E1,4.59572E0,8.88911E1,2.2153764E0,8.409001E0],"tree_param":{"num_deleted":"0","num_feature":"7","num_nodes":"19","size_leaf_vector":"1"}},{"base_weights":[1.8113725E-3,-1.1234071E0,1.015766E0,-5.6625057E-2,-4.965258E-1,3.709584E-1,1.0861592E0,-8.124948E-3,-3.9793056E-2,1.21585056E-1,5.9387094E-1,9.446393E-1,5.5849742E-2,1.2927606E-2,-2.8961021E-2,3.9210763E-2,1.6591746E-2,2.3499563E-2,4.79463E-2],"categories":[],"categories_nodes":[],"categories_segments":[],"categories_sizes":[],"default_left":[0,0,0,0,1,0,0,0,0,1,1,0,0,0,0,0,0,0,0],"id":38,"left_children":[1,3,5,-1,7,9,11,-1,-1,13,15,17,-1,-1,-1,-1,-1,-1,-1],"loss_changes":[2.8065251E3,6.0845947E0,5.8327637E1,0E0,1.7157221E0,7.091524E0,4.033325E0,0E0,0E0,6.1089087E0,3.12084E0,1.0078888E0,0E0,0E0,0E0,0E0,0E0,0E0,0E0],"parents":[2147483647,0,0,1,1,2,2,4,4,5,5,6,6,9,9,10,10,11,11],"right_children":[2,4,6,-1,8,10,12,-1,-1,14,16,18,-1,-1,-1,-1,-1,-1,-1],"split_conditions":[7.532E0,7.364E0,7.974E0,-5.6625057E-2,8.744149E-2,7.792E0,8.31E0,-8.124948E-3,-3.9793056E-2,1.3446774E-1,2.2425E-1,4.2336497E-1,5.5849742E-2,1.2927606E-2,-2.8961021E-2,3.9210763E-2,1.6591746E-2,2.3499563E-2,4.79463E-2],"split_indices":[6,6,6,0,1,6,6,0,0,1,4,2,0,0,0,0,0,0,0],"split_type":[0,0,0,0,0,0,0,0,0,0,0,0,0,0,0,0,0,0,0],"sum_hessian":[2.4578774E3,1.1649673E3,1.2929102E3,1.1475143E3,1.7453062E1,1.2787082E2,1.1650393E3,8.977726E0,8.475335E0,6.1082718E1,6.678809E1,2.1409387E2,9.5094543E2,5.1624226E1,9.458493E0,3.7531925E1,2.925617E1,7.2463255E0,2.0684755E2],"tree_param":{"num_deleted":"0","num_feature":"7","num_nodes":"19","size_leaf_vector":"1"}},{"base_weights":[-9.355349E-3,-1.086388E0,1.0362597E0,-1.1190292E0,-2.0336708E-1,6.042091E-1,1.0849751E0,-5.6251485E-2,-3.4948673E-2,5.4769028E-2,-3.801211E-1,6.690495E-1,1.7581801E-1,9.867885E-1,5.579815E-2,-3.759102E-2,-8.040659E-3,-1.8006263E-2,3.4470838E-2,4.1314058E-2,-5.895353E-3,5.0315317E-2,3.2934017E-2],"categories":[],"categories_nodes":[],"categories_segments":[],"categories_sizes":[],"default_left":[0,0,0,0,0,1,0,0,0,0,0,0,0,1,0,0,0,0,0,0,0,0,0],"id":39,"left_children":[1,3,5,7,9,11,13,-1,-1,-1,15,17,19,21,-1,-1,-1,-1,-1,-1,-1,-1,-1],"loss_changes":[2.650753E3,3.3191895E1,2.4482056E1,2.031372E0,1.0185183E1,3.3066177E0,2.1606445E0,0E0,0E0,0E0,2.9929776E0,2.4851532E0,3.4528427E0,1.0394287E0,0E0,0E0,0E0,0E0,0E0,0E0,0E0,0E0,0E0],"parents":[2147483647,0,0,1,1,2,2,3,3,4,4,5,5,6,6,10,10,11,11,12,12,13,13],"right_children":[2,4,6,8,10,12,14,-1,-1,-1,16,18,20,22,-1,-1,-1,-1,-1,-1,-1,-1,-1],"split_conditions":[7.734E0,7.532E0,8.058E0,7.364E0,8.555444E-2,1.0337959E-1,8.438E0,-5.6251485E-2,-3.4948673E-2,5.4769028E-2,1.1348531E-1,1.0896608E-1,1.780576E-1,1.1099737E-1,5.579815E-2,-3.759102E-2,-8.040659E-3,-1.8006263E-2,3.4470838E-2,4.1314058E-2,-5.895353E-3,5.0315317E-2,3.2934017E-2],"split_indices":[6,6,6,6,5,5,6,0,0,0,5,3,3,5,0,0,0,0,0,0,0,0,0],"split_type":[0,0,0,0,0,0,0,0,0,0,0,0,0,0,0,0,0,0,0,0,0,0,0],"sum_hessian":[2.351795E3,1.1584736E3,1.1933213E3,1.116919E3,4.1554688E1,1.2227605E2,1.0710453E3,1.0995338E3,1.7385157E1,4.3553543E0,3.7199337E1,1.0571368E2,1.6562366E1,2.6481363E2,8.062316E2,1.2902712E1,2.4296623E1,1.7277482E0,1.0398593E2,4.588308E0,1.1974059E1,2.4799449E2,1.6819153E1],"tree_param":{"num_deleted":"0","num_feature":"7","num_nodes":"23","size_leaf_vector":"1"}},{"base_weights":[-3.3910528E-3,-1.0878967E0,1.0099484E0,-5.591164E-2,-3.388943E-1,3.9003268E-1,1.0676652E0,-2.1640076E-1,-7.4184686E-1,5.7390654E-1,8.3865404E-2,9.299794E-1,5.488344E-2,-1.4861963E-2,2.972943E-2,1.2348663E-2,-4.8696097E-2,1.7178996E-2,3.5336044E-2,1.5047997E-2,-4.2770293E-2,4.7241665E-2,1.8221965E-2],"categories":[],"categories_nodes":[],"categories_segments":[],"categories_sizes":[],"default_left":[0,0,0,0,1,1,0,1,0,0,0,1,0,0,0,0,0,0,0,0,0,0,0],"id":40,"left_children":[1,3,5,-1,7,9,11,13,15,17,19,21,-1,-1,-1,-1,-1,-1,-1,-1,-1,-1,-1],"loss_changes":[2.4970989E3,2.4559692E1,4.161206E1,0E0,2.0190668E0,5.6729937E0,3.4160156E0,2.4893782E0,2.508356E0,1.6942558E0,8.271779E0,1.3249359E0,0E0,0E0,0E0,0E0,0E0,0E0,0E0,0E0,0E0,0E0,0E0],"parents":[2147483647,0,0,1,1,2,2,4,4,5,5,6,6,7,7,8,8,9,9,10,10,11,11],"right_children":[2,4,6,-1,8,10,12,14,16,18,20,22,-1,-1,-1,-1,-1,-1,-1,-1,-1,-1,-1],"split_conditions":[7.658E0,7.364E0,7.974E0,-5.591164E-2,1.7596619E-1,3.9419502E-1,8.31E0,1.6925424E-1,3.7249E-1,7.792E0,2.1518996E-1,4.9164996E-1,5.488344E-2,-1.4861963E-2,2.972943E-2,1.2348663E-2,-4.8696097E-2,1.7178996E-2,3.5336044E-2,1.5047997E-2,-4.2770293E-2,4.7241665E-2,1.8221965E-2],"split_indices":[6,6,6,0,3,0,6,3,0,6,3,0,0,0,0,0,0,0,0,0,0,0,0],"split_type":[0,0,0,0,0,0,0,0,0,0,0,0,0,0,0,0,0,0,0,0,0,0,0],"sum_hessian":[2.270213E3,1.0965641E3,1.1736488E3,1.053406E3,4.3158096E1,1.0062545E2,1.0730233E3,3.4275673E1,8.882426E0,6.2322277E1,3.8303173E1,1.9771355E2,8.7530975E2,3.1744865E1,2.5308058E0,1.676222E0,7.206204E0,2.410547E1,3.8216805E1,3.1664185E1,6.6389875E0,1.9200002E2,5.7135444E0],"tree_param":{"num_deleted":"0","num_feature":"7","num_nodes":"23","size_leaf_vector":"1"}},{"base_weights":[-1.1172413E-3,-1.0789528E0,1.0043072E0,-5.558312E-2,-2.6345554E-1,5.325482E-1,1.0680299E0,-1.7422839E-1,-4.060338E-2,2.6779103E-1,6.846423E-1,9.650391E-1,5.5010445E-2,1.2982145E-2,-1.40469E-2,2.0773364E-2,-2.2336511E-2,3.564574E-2,-3.538882E-2,1.5468509E-3,4.8567377E-2],"categories":[],"categories_nodes":[],"categories_segments":[],"categories_sizes":[],"default_left":[0,0,0,0,1,0,0,0,0,1,1,0,0,0,0,0,0,0,0,0,0],"id":41,"left_children":[1,3,5,-1,7,9,11,13,-1,15,17,19,-1,-1,-1,-1,-1,-1,-1,-1,-1],"loss_changes":[2.3705012E3,2.786792E1,3.3453125E1,0E0,1.9155478E0,5.3201942E0,2.239502E0,1.8052795E0,0E0,5.620761E0,3.8965874E0,1.4152374E0,0E0,0E0,0E0,0E0,0E0,0E0,0E0,0E0,0E0],"parents":[2147483647,0,0,1,1,2,2,4,4,5,5,6,6,7,7,9,9,10,10,11,11],"right_children":[2,4,6,-1,8,10,12,14,-1,16,18,20,-1,-1,-1,-1,-1,-1,-1,-1,-1],"split_conditions":[7.658E0,7.364E0,8.058E0,-5.558312E-2,1.4155559E-1,7.842E0,8.438E0,1.7551321E-1,-4.060338E-2,1.3674636E-1,2.9799503E-1,3.7545502E-1,5.5010445E-2,1.2982145E-2,-1.40469E-2,2.0773364E-2,-2.2336511E-2,3.564574E-2,-3.538882E-2,1.5468509E-3,4.8567377E-2],"split_indices":[6,6,6,0,1,6,6,3,0,1,4,2,0,0,0,0,0,0,0,0,0],"split_type":[0,0,0,0,0,0,0,0,0,0,0,0,0,0,0,0,0,0,0,0,0],"sum_hessian":[2.1854507E3,1.0547085E3,1.1307422E3,1.0136862E3,4.1022205E1,1.3567267E2,9.950696E2,3.6416885E1,4.60532E0,5.0509388E1,8.5163284E1,2.4426787E2,7.508017E2,6.9057164E0,2.9511168E1,4.2205044E1,8.304343E0,8.3946785E1,1.2165022E0,1.6781981E0,2.4258968E2],"tree_param":{"num_deleted":"0","num_feature":"7","num_nodes":"21","size_leaf_vector":"1"}},{"base_weights":[1.275846E-4,-6.1928415E-1,7.69647E-2,-1.810438E-1,-7.790585E-1,-1.51917925E-2,3.9889777E-1,-3.8441274E-2,-5.7478495E-2,-4.6441194E-2,-5.220347E-1,-3.3201903E-2,1.8740569E-1,2.5949126E-1,4.923248E-1,-3.704326E-2,1.5156743E-3,-5.9240027E-3,-3.19168E-2,-1.2964549E-2,-1.3413619E-3,2.8266525E-2,7.163775E-3,3.104757E-3,1.7511731E-2,2.279687E-2,3.4752846E-2],"categories":[],"categories_nodes":[],"categories_segments":[],"categories_sizes":[],"default_left":[0,0,1,0,0,1,0,0,0,0,0,0,0,0,0,0,0,0,0,0,0,0,0,0,0,0,0],"id":42,"left_children":[1,3,5,7,9,11,13,-1,15,-1,17,19,21,23,25,-1,-1,-1,-1,-1,-1,-1,-1,-1,-1,-1,-1],"loss_changes":[9.931338E1,1.5983345E1,5.5082184E1,4.51903E0,5.9995117E0,5.2758923E0,5.2536697E0,0E0,3.201991E0,0E0,2.942339E0,1.9058095E0,1.8879042E0,2.9858952E0,1.499836E0,0E0,0E0,0E0,0E0,0E0,0E0,0E0,0E0,0E0,0E0,0E0,0E0],"parents":[2147483647,0,0,1,1,2,2,3,3,4,4,5,5,6,6,8,8,10,10,11,11,12,12,13,13,14,14],"right_children":[2,4,6,8,10,12,14,-1,16,-1,18,20,22,24,26,-1,-1,-1,-1,-1,-1,-1,-1,-1,-1,-1,-1],"split_conditions":[4.4537503E-1,1.4594504E-1,5.2053005E-1,2.2914001E-1,3.8814002E-1,2.4811503E-1,5.7662004E-1,-3.8441274E-2,3.3944E-1,-4.6441194E-2,1.7551321E-1,4.7878498E-1,1.3841204E-1,4.1194502E-1,6.77925E-1,-3.704326E-2,1.5156743E-3,-5.9240027E-3,-3.19168E-2,-1.2964549E-2,-1.3413619E-3,2.8266525E-2,7.163775E-3,3.104757E-3,1.7511731E-2,2.279687E-2,3.4752846E-2],"split_indices":[2,1,2,4,2,4,2,0,2,0,3,2,3,0,2,0,0,0,0,0,0,0,0,0,0,0,0],"split_type":[0,0,0,0,0,0,0,0,0,0,0,0,0,0,0,0,0,0,0,0,0,0,0,0,0,0,0],"sum_hessian":[2.0846853E3,2.2928404E2,1.8554012E3,6.1828815E1,1.6745523E2,1.4432186E3,4.1218262E2,9.832946E0,5.199587E1,1.041527E2,6.3302532E1,1.326164E3,1.170546E2,1.6690862E2,2.4527402E2,5.072427E0,4.6923443E1,1.4613559E1,4.8688972E1,3.5278362E1,1.2908856E3,1.1004351E1,1.06050255E2,5.30947E1,1.1381391E2,2.1070459E2,3.4569424E1],"tree_param":{"num_deleted":"0","num_feature":"7","num_nodes":"27","size_leaf_vector":"1"}},{"base_weights":[-3.571878E-3,-1.0710787E0,9.8877794E-1,-5.5285912E-2,-3.2092988E-1,4.2398137E-1,1.0448232E0,-3.1199962E-2,-9.4032295E-2,1.773548E-2,5.187246E-1,9.1622746E-1,5.4652948E-2,3.9049618E-2,-8.867004E-3,1.0867807E-2,-2.5979785E-2,2.9991845E-2,-6.9372677E-3,1.7493382E-2,4.64123E-2],"categories":[],"categories_nodes":[],"categories_segments":[],"categories_sizes":[],"default_left":[0,0,0,0,0,0,0,0,0,1,1,0,0,0,0,0,0,0,0,0,0],"id":43,"left_children":[1,3,5,-1,7,9,11,-1,13,15,17,19,-1,-1,-1,-1,-1,-1,-1,-1,-1],"loss_changes":[2.2105835E3,2.5767822E1,3.3789307E1,0E0,3.0895553E0,3.8130913E0,5.096924E0,0E0,2.1328387E0,2.2384353E0,4.375801E0,1.5427856E0,0E0,0E0,0E0,0E0,0E0,0E0,0E0,0E0,0E0],"parents":[2147483647,0,0,1,1,2,2,4,4,5,5,6,6,8,8,9,9,10,10,11,11],"right_children":[2,4,6,-1,8,10,12,-1,14,16,18,20,-1,-1,-1,-1,-1,-1,-1,-1,-1],"split_conditions":[7.658E0,7.364E0,7.974E0,-5.5285912E-2,7.532E0,7.734E0,8.438E0,-3.1199962E-2,3.80255E-1,4.11395E-1,2.1518996E-1,4.1190505E-1,5.4652948E-2,3.9049618E-2,-8.867004E-3,1.0867807E-2,-2.5979785E-2,2.9991845E-2,-6.9372677E-3,1.7493382E-2,4.64123E-2],"split_indices":[6,6,6,0,6,6,6,0,0,0,3,2,0,0,0,0,0,0,0,0,0],"split_type":[0,0,0,0,0,0,0,0,0,0,0,0,0,0,0,0,0,0,0,0,0],"sum_hessian":[2.0847554E3,1.00430676E3,1.0804487E3,9.595248E2,4.4781994E1,9.830849E1,9.821402E2,1.842346E1,2.6358532E1,1.8815868E1,7.9492615E1,2.7336084E2,7.0877936E2,1.5633265E0,2.4795206E1,1.41533375E1,4.6625314E0,7.084065E1,8.651969E0,6.3060803E0,2.6705475E2],"tree_param":{"num_deleted":"0","num_feature":"7","num_nodes":"21","size_leaf_vector":"1"}},{"base_weights":[9.730369E-3,-1.0919064E0,9.6504235E-1,-5.499641E-2,-5.683681E-1,3.578878E-1,1.0400281E0,-4.813059E-2,-1.2723391E-2,4.5828328E-1,2.6049271E-2,4.378992E-2,5.3814817E-2,1.4673232E-2,3.576794E-2,1.298714E-2,-2.3630096E-2],"categories":[],"categories_nodes":[],"categories_segments":[],"categories_sizes":[],"default_left":[0,0,0,0,0,1,0,0,0,0,0,0,0,0,0,0,0],"id":44,"left_children":[1,3,5,-1,7,9,11,-1,-1,13,15,-1,-1,-1,-1,-1,-1],"loss_changes":[2.093949E3,3.2557373E0,4.8142456E1,0E0,1.7368693E0,3.9413366E0,4.7036133E0,0E0,0E0,3.6475449E0,3.4581556E0,0E0,0E0,0E0,0E0,0E0,0E0],"parents":[2147483647,0,0,1,1,2,2,4,4,5,5,6,6,9,9,10,10],"right_children":[2,4,6,-1,8,10,12,-1,-1,14,16,-1,-1,-1,-1,-1,-1],"split_conditions":[7.532E0,7.364E0,7.974E0,-5.499641E-2,4.8280495E-1,4.35265E-1,8.31E0,-4.813059E-2,-1.2723391E-2,7.842E0,1.8575568E-1,4.378992E-2,5.3814817E-2,1.4673232E-2,3.576794E-2,1.298714E-2,-2.3630096E-2],"split_indices":[6,6,6,0,0,0,6,0,0,6,3,0,0,0,0,0,0],"split_type":[0,0,0,0,0,0,0,0,0,0,0,0,0,0,0,0,0],"sum_hessian":[1.987675E3,9.230727E2,1.0646023E3,9.0805835E2,1.5014313E1,1.17663185E2,9.4693915E2,5.739349E0,9.274963E0,9.0040886E1,2.76223E1,1.7584181E2,7.7109735E2,5.6170124E1,3.387076E1,1.913416E1,8.488139E0],"tree_param":{"num_deleted":"0","num_feature":"7","num_nodes":"17","size_leaf_vector":"1"}},{"base_weights":[-8.411357E-3,-7.883404E-1,4.454093E-2,-4.976943E-2,-5.933813E-1,-4.8551448E-2,3.5466817E-1,-2.3657521E-2,-8.0859774E-1,-3.8386226E-2,-2.9392231E-2,2.607483E-1,2.4142921E-2,-1.1172591E-3,-4.348124E-2,1.1941253E-2,-2.4074574E-3,1.5971942E-2,5.166821E-3],"categories":[],"categories_nodes":[],"categories_segments":[],"categories_sizes":[],"default_left":[0,0,1,0,0,1,0,0,0,0,0,0,0,0,0,0,0,0,0],"id":45,"left_children":[1,3,5,-1,7,9,11,-1,13,15,-1,17,-1,-1,-1,-1,-1,-1,-1],"loss_changes":[7.913397E1,4.32679E0,5.1823875E1,0E0,1.3049755E0,7.5483484E0,4.863434E0,0E0,1.0345087E0,3.6828852E0,0E0,2.196722E0,0E0,0E0,0E0,0E0,0E0,0E0,0E0],"parents":[2147483647,0,0,1,1,2,2,4,4,5,5,6,6,8,8,9,9,11,11],"right_children":[2,4,6,-1,8,10,12,-1,14,16,-1,18,-1,-1,-1,-1,-1,-1,-1],"split_conditions":[3.9735502E-1,3.2951E-1,5.10505E-1,-4.976943E-2,1.2518105E-1,1.2208704E-1,5.9566504E-1,-2.3657521E-2,1.4155559E-1,1.5925682E-1,-2.9392231E-2,1.0300082E-1,2.4142921E-2,-1.1172591E-3,-4.348124E-2,1.1941253E-2,-2.4074574E-3,1.5971942E-2,5.166821E-3],"split_indices":[2,2,2,0,5,5,2,0,1,3,0,5,0,0,0,0,0,0,0],"split_type":[0,0,0,0,0,0,0,0,0,0,0,0,0,0,0,0,0,0,0],"sum_hessian":[1.914272E3,1.2082117E2,1.7934508E3,5.6602833E1,6.421833E1,1.3800408E3,4.1341E2,4.325332E1,2.0965017E1,1.3555608E3,2.4480001E1,2.4034955E2,1.7306044E2,1.6084472E0,1.935657E1,4.531826E1,1.3102426E3,1.7432404E2,6.602551E1],"tree_param":{"num_deleted":"0","num_feature":"7","num_nodes":"19","size_leaf_vector":"1"}},{"base_weights":[-8.011999E-3,-1.0850778E0,9.437005E-1,-5.4735273E-2,-5.6975806E-1,2.550244E-1,1.0321165E0,-3.3439834E-2,1.7558947E-2,-1.1032533E-2,5.0858516E-1,9.157152E-1,5.3791415E-2,7.5996355E-3,-2.241876E-2,2.7081475E-2,-2.4222571E-2,1.817779E-2,4.6437405E-2],"categories":[],"categories_nodes":[],"categories_segments":[],"categories_sizes":[],"default_left":[0,0,0,0,1,0,0,0,0,1,1,0,0,0,0,0,0,0,0],"id":46,"left_children":[1,3,5,-1,7,9,11,-1,-1,13,15,17,-1,-1,-1,-1,-1,-1,-1],"loss_changes":[1.9588264E3,3.8238525E0,6.151056E1,0E0,1.9246168E0,7.8822603E0,3.5877686E0,0E0,0E0,4.200119E0,2.2248163E0,1.4763947E0,0E0,0E0,0E0,0E0,0E0,0E0,0E0],"parents":[2147483647,0,0,1,1,2,2,4,4,5,5,6,6,9,9,10,10,11,11],"right_children":[2,4,6,-1,8,10,12,-1,-1,14,16,18,-1,-1,-1,-1,-1,-1,-1],"split_conditions":[7.532E0,7.364E0,7.974E0,-5.4735273E-2,2.8354996E-1,7.792E0,8.438E0,-3.3439834E-2,1.7558947E-2,8.990671E-2,1.2518105E-1,4.1190505E-1,5.3791415E-2,7.5996355E-3,-2.241876E-2,2.7081475E-2,-2.4222571E-2,1.817779E-2,4.6437405E-2],"split_indices":[6,6,6,0,4,6,6,0,0,5,5,2,0,0,0,0,0,0,0],"split_type":[0,0,0,0,0,0,0,0,0,0,0,0,0,0,0,0,0,0,0],"sum_hessian":[1.9089451E3,8.954323E2,1.0135128E3,8.77906E2,1.7526266E1,1.1575754E2,8.9775525E2,1.6071686E1,1.4545803E0,5.6953594E1,5.880394E1,2.5108437E2,6.466709E2,4.196358E1,1.4990014E1,5.7350124E1,1.4538151E0,6.4560847E0,2.4462828E2],"tree_param":{"num_deleted":"0","num_feature":"7","num_nodes":"19","size_leaf_vector":"1"}},{"base_weights":[1.8283756E-3,-1.0764397E0,9.3065846E-1,-5.4466527E-2,-4.1436836E-1,1.829243E-1,1.0089518E0,-1.2642838E-2,-4.5981318E-2,6.4549077E-1,1.139637E-1,8.162773E-1,5.3010803E-2,5.723623E-3,5.371503E-2,-5.352037E-2,8.256654E-3,4.114328E-2,-6.4405105E-3],"categories":[],"categories_nodes":[],"categories_segments":[],"categories_sizes":[],"default_left":[0,0,0,0,1,0,0,0,0,0,0,1,0,0,0,0,0,0,0],"id":47,"left_children":[1,3,5,-1,7,9,11,-1,-1,13,15,17,-1,-1,-1,-1,-1,-1,-1],"loss_changes":[1.8362161E3,6.789917E0,5.74776E1,0E0,1.22152E0,2.9433956E0,7.938965E0,0E0,0E0,2.622313E0,5.2385216E0,1.299408E0,0E0,0E0,0E0,0E0,0E0,0E0,0E0],"parents":[2147483647,0,0,1,1,2,2,4,4,5,5,6,6,9,9,10,10,11,11],"right_children":[2,4,6,-1,8,10,12,-1,-1,14,16,18,-1,-1,-1,-1,-1,-1,-1],"split_conditions":[7.532E0,7.364E0,7.918E0,-5.4466527E-2,1.7848252E-1,8.555444E-2,8.31E0,-1.2642838E-2,-4.5981318E-2,7.96281E-2,1.0137095E-1,1.3176003E-1,5.3010803E-2,5.723623E-3,5.371503E-2,-5.352037E-2,8.256654E-3,4.114328E-2,-6.4405105E-3],"split_indices":[6,6,6,0,3,5,6,0,0,5,1,5,0,0,0,0,0,0,0],"split_type":[0,0,0,0,0,0,0,0,0,0,0,0,0,0,0,0,0,0,0],"sum_hessian":[1.8314146E3,8.474549E2,9.839596E2,8.306367E2,1.6818186E1,9.357887E1,8.903807E2,1.3881313E1,2.9368718E0,1.1056303E1,8.2522575E1,1.9067174E2,6.99709E2,5.5055003E0,5.5508027E0,2.5927033E0,7.992987E1,1.894802E2,1.1915369E0],"tree_param":{"num_deleted":"0","num_feature":"7","num_nodes":"19","size_leaf_vector":"1"}},{"base_weights":[-6.57249E-4,-6.291558E-1,6.525364E-2,-4.7156174E-2,-4.319251E-1,3.4511012E-1,-2.640572E-2,-1.2950656E-1,-2.7778774E-2,1.6751653E-1,4.2968225E-1,-4.3060914E-1,-1.834229E-2,-2.9503686E-2,2.6934163E-3,-2.483276E-2,1.0709556E-2,1.3823086E-2,2.502408E-2,-2.9876575E-2,-6.6362782E-3,-1.1793275E-3,1.6174361E-2],"categories":[],"categories_nodes":[],"categories_segments":[],"categories_sizes":[],"default_left":[0,0,0,0,0,0,0,0,0,0,0,0,1,0,0,0,0,0,0,0,0,0,0],"id":48,"left_children":[1,3,5,-1,7,9,11,13,-1,15,17,19,21,-1,-1,-1,-1,-1,-1,-1,-1,-1,-1],"loss_changes":[7.2454895E1,9.872978E0,4.061693E1,0E0,3.809866E0,5.795223E0,3.8817782E0,2.686279E0,0E0,4.0636916E0,2.7253075E0,1.0791154E0,2.1070352E0,0E0,0E0,0E0,0E0,0E0,0E0,0E0,0E0,0E0,0E0],"parents":[2147483647,0,0,1,1,2,2,4,4,5,5,6,6,7,7,9,9,10,10,11,11,12,12],"right_children":[2,4,6,-1,8,10,12,14,-1,16,18,20,22,-1,-1,-1,-1,-1,-1,-1,-1,-1,-1],"split_conditions":[4.33495E-1,3.4803003E-1,1.0318599E-1,-4.7156174E-2,1.0598893E-1,5.35195E-1,3.9281502E-1,2.3232499E-1,-2.7778774E-2,2.0328E-1,2.3050001E-1,5.0651E-1,5.7785E-1,-2.9503686E-2,2.6934163E-3,-2.483276E-2,1.0709556E-2,1.3823086E-2,2.502408E-2,-2.9876575E-2,-6.6362782E-3,-1.1793275E-3,1.6174361E-2],"split_indices":[2,2,5,0,5,2,0,4,0,4,4,2,2,0,0,0,0,0,0,0,0,0,0],"split_type":[0,0,0,0,0,0,0,0,0,0,0,0,0,0,0,0,0,0,0,0,0,0,0],"sum_hessian":[1.7470754E3,1.650151E2,1.5820603E3,6.220707E1,1.02808044E2,3.8963934E2,1.1924209E3,3.0430315E1,7.237772E1,1.2665547E2,2.6298386E2,2.2297346E1,1.1701235E3,8.03404E0,2.2396275E1,7.6832514E0,1.1897221E2,8.466369E1,1.7832019E2,1.3645191E1,8.652155E0,1.1533601E3,1.6763546E1],"tree_param":{"num_deleted":"0","num_feature":"7","num_nodes":"23","size_leaf_vector":"1"}},{"base_weights":[3.0518384E-3,-1.0408887E0,9.549466E-1,-5.4235995E-2,-2.1833575E-1,3.868169E-1,1.0185122E0,-2.2210669E-2,-5.5481845E-1,4.5930403E-1,-1.4260128E-1,4.2649E-2,5.2833438E-2,-7.8003863E-3,2.795941E-2,-6.1917294E-2,-1.5628899E-2,1.1851954E-3,2.8257588E-2,-7.563645E-2,9.994845E-3],"categories":[],"categories_nodes":[],"categories_segments":[],"categories_sizes":[],"default_left":[0,0,0,0,1,1,0,1,0,0,0,0,0,0,0,0,0,0,0,0,0],"id":49,"left_children":[1,3,5,-1,7,9,11,13,15,17,19,-1,-1,-1,-1,-1,-1,-1,-1,-1,-1],"loss_changes":[1.7400066E3,2.9872253E1,3.268158E1,0E0,2.8584754E0,3.664177E0,4.2974854E0,2.306149E0,2.2583919E0,3.8005047E0,5.9599867E0,0E0,0E0,0E0,0E0,0E0,0E0,0E0,0E0,0E0,0E0],"parents":[2147483647,0,0,1,1,2,2,4,4,5,5,6,6,7,7,8,8,9,9,10,10],"right_children":[2,4,6,-1,8,10,12,14,16,18,20,-1,-1,-1,-1,-1,-1,-1,-1,-1,-1],"split_conditions":[7.658E0,7.364E0,7.974E0,-5.4235995E-2,8.606703E-2,2.1518996E-1,8.31E0,2.1417001E-1,2.3084E-1,7.734E0,2.2123608E-1,4.2649E-2,5.2833438E-2,-7.8003863E-3,2.795941E-2,-6.1917294E-2,-1.5628899E-2,1.1851954E-3,2.8257588E-2,-7.563645E-2,9.994845E-3],"split_indices":[6,6,6,0,5,3,6,4,4,6,3,0,0,0,0,0,0,0,0,0,0],"split_type":[0,0,0,0,0,0,0,0,0,0,0,0,0,0,0,0,0,0,0,0,0],"sum_hessian":[1.7490001E3,8.3412445E2,9.148757E2,7.916227E2,4.2501762E1,9.277421E1,8.2210144E2,2.7524572E1,1.497719E1,8.171794E1,1.1056261E1,1.5837762E2,6.637238E2,2.2970133E1,4.554438E0,2.84302E0,1.2134171E1,1.6214325E1,6.550362E1,1.5277818E0,9.52848E0],"tree_param":{"num_deleted":"0","num_feature":"7","num_nodes":"21","size_leaf_vector":"1"}},{"base_weights":[-4.651657E-3,-6.745505E-1,4.834872E-2,-4.6338324E-2,-4.3088377E-1,-3.0150587E-2,3.1397545E-1,-1.7307654E-1,-2.8598625E-2,-3.3215794E-1,-1.831925E-2,2.2584604E-1,4.5042196E-1,-2.5079666E-2,5.4404545E-3,-2.3173314E-2,1.2242387E-2,2.118036E-2,-1.2695412E-3,4.875072E-3,1.5473376E-2,3.359804E-4,2.3410523E-2],"categories":[],"categories_nodes":[],"categories_segments":[],"categories_sizes":[],"default_left":[0,0,1,0,0,0,0,0,0,0,0,0,0,0,0,0,0,0,0,0,0,0,0],"id":50,"left_children":[1,3,5,-1,7,9,11,13,-1,15,17,19,21,-1,-1,-1,-1,-1,-1,-1,-1,-1,-1],"loss_changes":[5.961958E1,7.166725E0,3.245782E1,0E0,2.246604E0,4.2891855E0,4.167942E0,2.2995362E0,0E0,3.5425687E0,3.6291294E0,2.3066416E0,1.0886803E0,0E0,0E0,0E0,0E0,0E0,0E0,0E0,0E0,0E0,0E0],"parents":[2147483647,0,0,1,1,2,2,4,4,5,5,6,6,7,7,9,9,10,10,11,11,12,12],"right_children":[2,4,6,-1,8,10,12,14,-1,16,18,20,22,-1,-1,-1,-1,-1,-1,-1,-1,-1,-1],"split_conditions":[4.1190505E-1,3.4803003E-1,5.115699E-1,-4.6338324E-2,1.8157618E-1,2.3232499E-1,6.00705E-1,4.49435E-1,-2.8598625E-2,4.9662995E-1,9.21162E-2,2.4110499E-1,3.6634E-1,-2.5079666E-2,5.4404545E-3,-2.3173314E-2,1.2242387E-2,2.118036E-2,-1.2695412E-3,4.875072E-3,1.5473376E-2,3.359804E-4,2.3410523E-2],"split_indices":[2,2,2,0,3,4,2,0,0,2,5,4,0,0,0,0,0,0,0,0,0,0,0],"split_type":[0,0,0,0,0,0,0,0,0,0,0,0,0,0,0,0,0,0,0,0,0,0,0],"sum_hessian":[1.677275E3,1.2211199E2,1.555163E3,5.8625816E1,6.348617E1,1.2010958E3,3.540672E2,2.3242521E1,4.0243652E1,4.4259182E1,1.1568365E3,2.1673526E2,1.3733192E2,1.0373526E1,1.2868996E1,3.6214645E1,8.0445385E0,1.7292107E1,1.1395446E3,8.635744E1,1.3037782E2,5.346665E0,1.3198526E2],"tree_param":{"num_deleted":"0","num_feature":"7","num_nodes":"23","size_leaf_vector":"1"}},{"base_weights":[3.8019547E-3,-6.7317665E-1,5.4877568E-2,-4.765266E-2,-4.624566E-1,-2.0090744E-2,3.3719468E-1,-1.962576E-1,-3.0732466E-2,-5.6488197E-3,-2.378783E-1,2.3338024E-1,2.3960529E-2,-2.1748567E-2,2.0708584E-3,1.2134504E-2,-1.0732888E-3,1.5965858E-3,-1.6024789E-2,1.423692E-2,1.8716227E-3],"categories":[],"categories_nodes":[],"categories_segments":[],"categories_sizes":[],"default_left":[0,0,1,0,0,1,0,0,0,0,0,0,0,0,0,0,0,0,0,0,0],"id":51,"left_children":[1,3,5,-1,7,9,11,13,-1,15,17,19,-1,-1,-1,-1,-1,-1,-1,-1,-1],"loss_changes":[5.7400524E1,6.4275856E0,3.2675644E1,0E0,2.6497393E0,3.8378065E0,4.6640205E0,1.5126297E0,0E0,4.505586E0,1.7017474E0,1.892211E0,0E0,0E0,0E0,0E0,0E0,0E0,0E0,0E0,0E0],"parents":[2147483647,0,0,1,1,2,2,4,4,5,5,6,6,7,7,9,9,10,10,11,11],"right_children":[2,4,6,-1,8,10,12,14,-1,16,18,20,-1,-1,-1,-1,-1,-1,-1,-1,-1],"split_conditions":[4.0992504E-1,3.3598498E-1,5.2053005E-1,-4.765266E-2,1.8363193E-1,1.09576456E-1,5.9961003E-1,3.8055998E-1,-3.0732466E-2,1.832244E-1,1.394299E-1,1.04817316E-1,2.3960529E-2,-2.1748567E-2,2.0708584E-3,1.2134504E-2,-1.0732888E-3,1.5965858E-3,-1.6024789E-2,1.423692E-2,1.8716227E-3],"split_indices":[2,2,2,0,3,5,2,2,0,3,1,5,0,0,0,0,0,0,0,0,0],"split_type":[0,0,0,0,0,0,0,0,0,0,0,0,0,0,0,0,0,0,0,0,0],"sum_hessian":[1.6580051E3,1.15460526E2,1.5425446E3,4.807924E1,6.738129E1,1.2196102E3,3.2293436E2,2.534321E1,4.203808E1,1.144727E3,7.488318E1,1.8808588E2,1.3484848E2,1.222982E1,1.3113391E1,6.768438E1,1.0770426E3,1.7698236E1,5.718494E1,1.4866695E2,3.941892E1],"tree_param":{"num_deleted":"0","num_feature":"7","num_nodes":"21","size_leaf_vector":"1"}},{"base_weights":[-3.5167425E-3,-1.0179528E0,9.488146E-1,-5.402094E-2,-1.9279987E-1,4.5265514E-1,1.01644E0,-2.972618E-3,-6.152281E-1,6.0496986E-2,5.214811E-1,8.9177185E-1,5.2848544E-2,3.6038715E-2,-5.4063285E-3,-4.389178E-2,-1.1573322E-3,-5.0371554E-2,1.0733533E-2,2.714412E-2,-2.3412641E-2,4.5724522E-2,2.5776366E-2],"categories":[],"categories_nodes":[],"categories_segments":[],"categories_sizes":[],"default_left":[0,0,0,0,1,0,0,0,0,0,1,1,0,0,0,0,0,0,0,0,0,0,0],"id":52,"left_children":[1,3,5,-1,7,9,11,13,15,17,19,21,-1,-1,-1,-1,-1,-1,-1,-1,-1,-1,-1],"loss_changes":[1.6203582E3,4.1652893E1,2.8566895E1,0E0,4.6788974E0,2.8179054E0,2.9003296E0,3.2194362E0,2.7928748E0,2.997695E0,2.15374E0,1.1782074E0,0E0,0E0,0E0,0E0,0E0,0E0,0E0,0E0,0E0,0E0,0E0],"parents":[2147483647,0,0,1,1,2,2,4,4,5,5,6,6,7,7,8,8,9,9,10,10,11,11],"right_children":[2,4,6,-1,8,10,12,14,16,18,20,22,-1,-1,-1,-1,-1,-1,-1,-1,-1,-1,-1],"split_conditions":[7.734E0,7.364E0,8.058E0,-5.402094E-2,8.990671E-2,7.792E0,8.438E0,1.7009188E-1,1.04817316E-1,7.96281E-2,1.2518105E-1,1.1099737E-1,5.2848544E-2,3.6038715E-2,-5.4063285E-3,-4.389178E-2,-1.1573322E-3,-5.0371554E-2,1.0733533E-2,2.714412E-2,-2.3412641E-2,4.5724522E-2,2.5776366E-2],"split_indices":[6,6,6,0,5,6,6,3,5,5,5,5,0,0,0,0,0,0,0,0,0,0,0],"split_type":[0,0,0,0,0,0,0,0,0,0,0,0,0,0,0,0,0,0,0,0,0,0,0],"sum_hessian":[1.6752521E3,8.1114294E2,8.641092E2,7.537713E2,5.737162E1,1.0457189E2,7.595373E2,4.02786E1,1.7093021E1,1.5893349E1,8.867854E1,1.9199255E2,5.6754474E2,4.367028E0,3.591157E1,1.1506767E1,5.5862536E0,1.3068296E0,1.4586519E1,8.724354E1,1.435005E0,1.7971062E2,1.2281938E1],"tree_param":{"num_deleted":"0","num_feature":"7","num_nodes":"23","size_leaf_vector":"1"}},{"base_weights":[4.16283E-3,-5.672378E-1,6.1372794E-2,-4.760499E-2,-3.9603138E-1,2.9830778E-1,-1.3681196E-2,-1.5740217E-1,-2.6382044E-2,1.4766076E-1,3.882644E-1,-2.269069E-2,-9.037914E-3,4.4577275E-3,-2.3578411E-2,1.587612E-2,1.6217787E-3,1.7498285E-2,3.3583593E-2,-3.3017655E-4,-3.3325862E-2],"categories":[],"categories_nodes":[],"categories_segments":[],"categories_sizes":[],"default_left":[0,0,0,0,0,0,0,0,0,0,0,0,1,0,0,0,0,0,0,0,0],"id":53,"left_children":[1,3,5,-1,7,9,11,13,-1,15,17,-1,19,-1,-1,-1,-1,-1,-1,-1,-1],"loss_changes":[5.2663025E1,9.28368E0,2.6043776E1,0E0,3.1576557E0,4.7170315E0,2.2704966E0,2.9936903E0,0E0,2.5993576E0,2.1525574E0,0E0,1.7600576E0,0E0,0E0,0E0,0E0,0E0,0E0,0E0,0E0],"parents":[2147483647,0,0,1,1,2,2,4,4,5,5,6,6,7,7,9,9,10,10,12,12],"right_children":[2,4,6,-1,8,10,12,14,-1,16,18,-1,20,-1,-1,-1,-1,-1,-1,-1,-1],"split_conditions":[4.3521005E-1,3.3598498E-1,1.0300082E-1,-4.760499E-2,1.8363193E-1,5.4356E-1,2.1915498E-1,1.1192614E-1,-2.6382044E-2,1.7596619E-1,6.77925E-1,-2.269069E-2,2.94975E-1,4.4577275E-3,-2.3578411E-2,1.587612E-2,1.6217787E-3,1.7498285E-2,3.3583593E-2,-3.3017655E-4,-3.3325862E-2],"split_indices":[2,2,5,0,3,2,4,5,0,3,2,0,4,0,0,0,0,0,0,0,0],"split_type":[0,0,0,0,0,0,0,0,0,0,0,0,0,0,0,0,0,0,0,0,0],"sum_hessian":[1.608927E3,1.4561739E2,1.4633097E3,4.342943E1,1.02187965E2,3.5130722E2,1.1120024E3,3.7105568E1,6.50824E1,1.3233394E2,2.1897327E2,1.0598981E1,1.1014034E3,2.119108E1,1.5914487E1,5.2776577E1,7.955736E1,1.9487357E2,2.40997E1,1.0983468E3,3.0566947E0],"tree_param":{"num_deleted":"0","num_feature":"7","num_nodes":"21","size_leaf_vector":"1"}},{"base_weights":[-9.3085505E-4,-1.0615973E0,8.955506E-1,-5.3815186E-2,-4.2275602E-1,1.8738346E-1,9.979609E-1,-2.7322793E-1,-4.5102637E-2,3.3653033E-1,-1.0570753E-1,4.0200792E-2,5.223478E-2,1.0097227E-2,-2.045106E-2,4.674266E-2,1.3161087E-2,-6.023565E-2,-1.1234153E-3],"categories":[],"categories_nodes":[],"categories_segments":[],"categories_sizes":[],"default_left":[0,0,0,0,1,1,0,0,0,0,0,0,0,0,0,0,0,0,0],"id":54,"left_children":[1,3,5,-1,7,9,11,13,-1,15,17,-1,-1,-1,-1,-1,-1,-1,-1],"loss_changes":[1.5123895E3,6.3898926E0,6.232715E1,0E0,1.0465088E0,4.850026E0,5.9838257E0,1.0624546E0,0E0,2.966014E0,3.440491E0,0E0,0E0,0E0,0E0,0E0,0E0,0E0,0E0],"parents":[2147483647,0,0,1,1,2,2,4,4,5,5,6,6,7,7,9,9,10,10],"right_children":[2,4,6,-1,8,10,12,14,-1,16,18,-1,-1,-1,-1,-1,-1,-1,-1],"split_conditions":[7.532E0,7.364E0,7.974E0,-5.3815186E-2,1.7991328E-1,8.555444E-2,8.31E0,5.7530004E-1,-4.5102637E-2,6.434E-1,8.8265896E-2,4.0200792E-2,5.223478E-2,1.0097227E-2,-2.045106E-2,4.674266E-2,1.3161087E-2,-6.023565E-2,-1.1234153E-3],"split_indices":[6,6,6,0,3,5,6,2,0,2,1,0,0,0,0,0,0,0,0],"split_type":[0,0,0,0,0,0,0,0,0,0,0,0,0,0,0,0,0,0,0],"sum_hessian":[1.5885363E3,7.275527E2,8.609836E2,7.1051154E2,1.7041096E1,1.09136246E2,7.5184735E2,1.4185615E1,2.8554816E0,7.223129E1,3.6904957E1,1.4952686E2,6.023205E2,3.0446215E0,1.1140993E1,6.601284E0,6.5630005E1,1.6497993E0,3.5255157E1],"tree_param":{"num_deleted":"0","num_feature":"7","num_nodes":"19","size_leaf_vector":"1"}},{"base_weights":[-2.4419737E-3,-1.0039371E0,9.38679E-1,-5.3609528E-2,-2.1376675E-1,4.8240867E-1,1.0028316E0,4.4660625E-1,-3.1085017E-1,1.5411489E-1,6.026244E-1,8.595207E-1,5.2578487E-2,-1.3339442E-2,4.2679347E-2,-3.5862673E-2,-7.9580275E-3,1.4109398E-2,-3.7463E-2,3.3287607E-2,6.35954E-3,2.5812073E-2,4.445542E-2],"categories":[],"categories_nodes":[],"categories_segments":[],"categories_sizes":[],"default_left":[0,0,0,0,0,0,0,0,0,1,1,0,0,0,0,0,0,0,0,0,0,0,0],"id":55,"left_children":[1,3,5,-1,7,9,11,13,15,17,19,21,-1,-1,-1,-1,-1,-1,-1,-1,-1,-1,-1],"loss_changes":[1.4406823E3,3.9707947E1,2.2582275E1,0E0,3.993661E0,3.8168774E0,3.9153442E0,2.5843759E0,3.1537776E0,3.439023E0,2.0813427E0,1.3750458E0,0E0,0E0,0E0,0E0,0E0,0E0,0E0,0E0,0E0,0E0,0E0],"parents":[2147483647,0,0,1,1,2,2,4,4,5,5,6,6,7,7,8,8,9,9,10,10,11,11],"right_children":[2,4,6,-1,8,10,12,14,16,18,20,22,-1,-1,-1,-1,-1,-1,-1,-1,-1,-1,-1],"split_conditions":[7.734E0,7.364E0,8.058E0,-5.3609528E-2,8.555444E-2,7.842E0,8.438E0,7.532E0,1.0068985E-1,1.0500843E-1,2.6972502E-1,8.389017E-2,5.2578487E-2,-1.3339442E-2,4.2679347E-2,-3.5862673E-2,-7.9580275E-3,1.4109398E-2,-3.7463E-2,3.3287607E-2,6.35954E-3,2.5812073E-2,4.445542E-2],"split_indices":[6,6,6,0,5,6,6,6,5,5,4,5,0,0,0,0,0,0,0,0,0,0,0],"split_type":[0,0,0,0,0,0,0,0,0,0,0,0,0,0,0,0,0,0,0,0,0,0,0],"sum_hessian":[1.52653E3,7.3951135E2,7.8701874E2,6.803841E2,5.912723E1,9.8066086E1,6.8895264E2,7.116913E0,5.201032E1,2.6896687E1,7.11694E1,1.7957164E2,5.0938098E2,2.710374E0,4.4065385E0,1.3123016E1,3.8887302E1,2.415922E1,2.7374668E0,6.2473873E1,8.69553E0,1.5713219E1,1.6385843E2],"tree_param":{"num_deleted":"0","num_feature":"7","num_nodes":"23","size_leaf_vector":"1"}},{"base_weights":[-4.7166524E-3,-4.9764267E-1,5.0146013E-2,-3.1337693E-1,-4.3047328E-2,2.696729E-1,-1.8629875E-2,-3.2509033E-2,-2.2460985E-1,-1.2685277E-1,2.8996035E-1,-4.105392E-1,-1.1914705E-2,1.2096607E-3,-1.7321954E-2,2.7705578E-3,-3.2668475E-2,9.729977E-3,1.8243397E-2,-3.476003E-2,-5.9703155E-3,7.835365E-3,-1.1269002E-3],"categories":[],"categories_nodes":[],"categories_segments":[],"categories_sizes":[],"default_left":[0,0,0,0,0,0,0,0,0,0,0,0,0,0,0,0,0,0,0,0,0,0,0],"id":56,"left_children":[1,3,5,7,-1,9,11,-1,13,15,17,19,21,-1,-1,-1,-1,-1,-1,-1,-1,-1,-1],"loss_changes":[3.9680553E1,9.567928E0,1.9940994E1,2.815978E0,0E0,2.5712624E0,2.6436014E0,0E0,2.4313707E0,1.5745599E0,2.0721626E0,1.319489E0,1.7777345E0,0E0,0E0,0E0,0E0,0E0,0E0,0E0,0E0,0E0,0E0],"parents":[2147483647,0,0,1,1,2,2,3,3,5,5,6,6,8,8,9,9,10,10,11,11,12,12],"right_children":[2,4,6,8,-1,10,12,-1,14,16,18,20,22,-1,-1,-1,-1,-1,-1,-1,-1,-1,-1],"split_conditions":[4.4537503E-1,1.2518105E-1,1.0300082E-1,2.2602499E-1,-4.3047328E-2,2.0328E-1,2.2701499E-1,-3.2509033E-2,1.0556574E-1,2.0109001E-1,5.6117E-1,4.9887496E-1,4.4635996E-1,1.2096607E-3,-1.7321954E-2,2.7705578E-3,-3.2668475E-2,9.729977E-3,1.8243397E-2,-3.476003E-2,-5.9703155E-3,7.835365E-3,-1.1269002E-3],"split_indices":[2,5,5,4,0,4,4,0,5,4,2,2,0,0,0,0,0,0,0,0,0,0,0],"split_type":[0,0,0,0,0,0,0,0,0,0,0,0,0,0,0,0,0,0,0,0,0,0,0],"sum_hessian":[1.4653777E3,1.4595363E2,1.3194241E3,9.807374E1,4.787989E1,3.1405756E2,1.0053665E3,1.9137375E1,7.893636E1,1.5030385E1,2.9902716E2,1.5923215E1,9.894433E2,2.6210321E1,5.2726044E1,1.1829971E1,3.2004137E0,1.331363E2,1.6589087E2,7.349332E0,8.573883E0,5.7826164E1,9.316172E2],"tree_param":{"num_deleted":"0","num_feature":"7","num_nodes":"23","size_leaf_vector":"1"}},{"base_weights":[-3.781484E-3,-6.652985E-1,3.416948E-2,-1.873186E-1,-7.82073E-1,-3.3082306E-2,2.913873E-1,-5.100182E-1,2.2704778E-3,-2.8405666E-2,-4.6346433E-2,-1.8565731E-2,-2.4010473E-1,3.2723215E-1,6.711535E-2,-3.399826E-2,1.3009625E-2,9.429447E-3,-1.4909196E-3,-2.4955053E-2,-7.212172E-3,1.5156591E-2,3.186016E-2,-1.2076065E-2,7.229224E-3],"categories":[],"categories_nodes":[],"categories_segments":[],"categories_sizes":[],"default_left":[0,0,1,0,0,1,0,0,0,0,0,0,0,0,0,0,0,0,0,0,0,0,0,0,0],"id":57,"left_children":[1,3,5,7,9,11,13,15,-1,-1,-1,17,19,21,23,-1,-1,-1,-1,-1,-1,-1,-1,-1,-1],"loss_changes":[3.6628185E1,4.271881E0,2.3880028E1,1.2891614E0,1.4353561E0,3.2857218E0,2.2781067E0,1.1121749E0,0E0,0E0,0E0,2.3929675E0,1.7070303E0,1.6477642E0,1.0076996E0,0E0,0E0,0E0,0E0,0E0,0E0,0E0,0E0,0E0,0E0],"parents":[2147483647,0,0,1,1,2,2,3,3,4,4,5,5,6,6,7,7,11,11,12,12,13,13,14,14],"right_children":[2,4,6,8,10,12,14,16,-1,-1,-1,18,20,22,24,-1,-1,-1,-1,-1,-1,-1,-1,-1,-1],"split_conditions":[3.9735502E-1,1.4641014E-1,5.1949006E-1,4.2308497E-1,1.2518105E-1,1.102953E-1,1.0500843E-1,2.4746926E-1,2.2704778E-3,-2.8405666E-2,-4.6346433E-2,1.7423233E-1,4.0401998E-1,6.8833506E-1,1.70866E-1,-3.399826E-2,1.3009625E-2,9.429447E-3,-1.4909196E-3,-2.4955053E-2,-7.212172E-3,1.5156591E-2,3.186016E-2,-1.2076065E-2,7.229224E-3],"split_indices":[2,1,2,0,5,5,5,3,0,0,0,3,0,2,3,0,0,0,0,0,0,0,0,0,0],"split_type":[0,0,0,0,0,0,0,0,0,0,0,0,0,0,0,0,0,0,0,0,0,0,0,0,0],